SVM-light Version V6.02
2 # kernel type
3 # kernel parameter -d 
1 # kernel parameter -g 
1 # kernel parameter -s 
1 # kernel parameter -r 
empty# kernel parameter -u 
34 # highest feature index 
227 # number of training documents 
177 # number of support vectors plus 1 
0.52640264 # threshold b, each following line is a SV (starting with alpha*y)
-0.35700440088141444094915755158581 1:1 2:0 3:-0.01864 4:-0.084590003 5:0 6:0 7:0 8:0 9:0.1147 10:-0.26809999 11:-0.45662999 12:-0.38172001 13:0 14:0 15:-0.33656001 16:0.38602 17:-0.37132999 18:0.15018 19:0.63727999 20:0.22115 21:0 22:0 23:0 24:0 25:-0.14803 26:-0.01326 27:0.20645 28:-0.022940001 29:0 30:0 31:0.16595 32:0.24086 33:-0.082079999 34:0.38065001 #
-0.47360651116540036786872747143207 1:1 2:0 3:-1 4:-1 5:1 6:1 7:1 8:-0.14375 9:0 10:0 11:-1 12:1 13:1 14:1 15:0.17917 16:-1 17:-1 18:-1 19:0.087499999 20:-1 21:1 22:-1 23:-1 24:1 25:-1 26:-1 27:1 28:-1 29:-1 30:-1 31:1 32:1 33:0 34:0 #
-0.47341099820011811605269258507178 1:1 2:0 3:1 4:1 5:0 6:0 7:0 8:0 9:0 10:0 11:0.47744 12:-0.89098001 13:-0.51503998 14:0.45489001 15:-0.95489001 16:0.28571001 17:0.64661998 18:1 19:0 20:0 21:0 22:0 23:0.62029999 24:0.20300999 25:-1 26:-1 27:1 28:-1 29:1 30:1 31:0 32:0 33:0 34:0 #
-0.47307622153570166867453394843324 1:1 2:0 3:1 4:1 5:1 6:-1 7:1 8:-1 9:1 10:1 11:1 12:1 13:1 14:1 15:1 16:-1 17:1 18:1 19:1 20:1 21:1 22:1 23:1 24:1 25:1 26:1 27:1 28:0.5 29:0 30:0 31:1 32:-1 33:1 34:-1 #
-0.47360651126762293161576167221938 1:1 2:0 3:-1 4:1 5:-1 6:0.15244 7:0.28354001 8:1 9:-1 10:1 11:-1 12:-1 13:1 14:1 15:-1 16:-0.23476 17:0.28301001 18:-1 19:1 20:1 21:-0.31402001 22:-1 23:-1 24:-1 25:1 26:-1 27:-1 28:-0.035780001 29:1 30:-1 31:-1 32:-0.32317001 33:0.14939 34:1 #
-0.21963706554163051065664546968037 1:1 2:0 3:0.064039998 4:-0.15271001 5:-0.044330001 6:0.059110001 7:0.083740003 8:-0.024630001 9:-0.01478 10:0.18719 11:0.064039998 12:0 13:0.12315 14:-0.098520003 15:0.059110001 16:0 17:0.0197 18:-0.02956 19:-0.12808 20:-0.2069 21:0.068970002 22:0.01478 23:0.068970002 24:0.02956 25:0.078819998 26:0.16256 27:0.28079 28:-0.049260002 29:-0.059110001 30:-0.093599997 31:0.044330001 32:0.054189999 33:0.073890001 34:-0.10837 #
0.50913182358938369187484340727679 1:1 2:0 3:0.83478999 4:0.28992999 5:0.69256002 6:0.47702 7:0.49234 8:0.68381 9:0.21991 10:0.86760998 11:-0.080959998 12:0.85010999 13:-0.35558 14:0.77680999 15:-0.52735001 16:0.58424997 17:-0.70349997 18:0.31290999 19:-0.75821 20:0.039390001 21:-0.71224999 22:-0.15317 23:-0.58315003 24:-0.39168 25:-0.37199 26:-0.52954 27:-0.16949999 28:-0.60863 29:0.084250003 30:-0.61488003 31:0.25163999 32:-0.48468 33:0.40590999 34:-0.35339001 #
0.37524830032427941572947815984662 1:1 2:0 3:0.87032002 4:0.46972001 5:0.53944999 6:0.82160997 7:0.1038 8:0.95275003 9:-0.38033 10:0.87915999 11:-0.73939002 12:0.58226001 13:-0.92098999 14:0.16731 15:-0.82416999 16:-0.24942 17:-0.59382999 18:-0.63341999 19:-0.24011999 20:-0.82880998 21:0.18822999 22:-0.78698999 23:0.51556998 24:-0.57429999 25:0.69274002 26:-0.24843 27:0.69097 28:0.10484 29:0.52798003 30:0.39761999 31:0.25974 32:0.56572998 33:-0.067390002 34:0.57551998 #
0.39014469045418548320824925212946 1:1 2:0 3:0.83427 4:0.39120999 5:0.54040003 6:0.78579003 7:0.12326 8:0.89402002 9:-0.33221 10:0.83578002 11:-0.70086002 12:0.59564 13:-0.86622 14:0.21909 15:-0.84442002 16:-0.24164 17:-0.59714001 18:-0.61894 19:-0.19354001 20:-0.87787002 21:0.12439 22:-0.89064002 23:0.51108998 24:-0.72454 25:0.79143 26:-0.27733999 27:0.83007997 28:0.087180004 29:0.66592002 30:0.49079001 31:0.37542 32:0.70011002 33:-0.039829999 34:0.79443997 #
0.10407743884756670560420843685279 1:1 2:0 3:0.86888999 4:-0.071110003 5:1 6:-0.024940001 7:1 8:-0.068889998 9:0.87778002 10:0.0022199999 11:0.83556002 12:-0.064439997 13:1 14:-0.072870001 15:1 16:-0.2 17:0.86888999 18:0.05333 19:0.88 20:-0.037780002 21:1 22:-0.11526 23:1 24:-0.18667001 25:0.84443998 26:0.035560001 27:1 28:-0.14162 29:0.82222003 30:-0.14667 31:1 32:-0.15609001 33:1 34:-0.44222 #
-0.50913182358938369187484340727679 1:1 2:0 3:1 4:-0.14754 5:1 6:0.049180001 7:0.57376999 8:-0.01639 9:0.65574002 10:0.01639 11:0.85246003 12:-0.032790001 13:0.72131002 14:0 15:0.68852001 16:-0.16393 17:0.19672 18:-0.14754 19:0.65557998 20:-0.17175999 21:0.67212999 22:0.032790001 23:1 24:-0.29508001 25:0.31147999 26:-0.34426001 27:0.52385002 28:-0.20325001 29:0.32787001 30:-0.032790001 31:0.27869001 32:-0.44262001 33:0.49180001 34:-0.065569997 #
-0.50913182358938369187484340727679 1:1 2:0 3:1 4:0.02461 5:0.99672002 6:0.048610002 7:0.97544998 8:0.071429998 9:0.61745 10:-1 11:0.91035998 12:0.11147 13:0.88462001 14:0.53640002 15:0.82077003 16:0.14137 17:0.76928997 18:0.15188999 19:1 20:0.41003001 21:0.65850002 22:0.16371 23:0.60137999 24:0.16516 25:0.54446 26:0.1639 27:0.48866999 28:0.16019 29:0.43481001 30:0.15436 31:0.38352001 32:0.14677 33:1 34:1 #
-0.50913182358938369187484340727679 1:1 2:0 3:0.72727001 4:-0.050000001 5:0.89240998 6:0.034619998 7:1 8:0.72727001 9:0.66364002 10:-0.05909 11:0.48181999 12:-0.16818 13:0.81809002 14:0.095590003 15:0.56818002 16:1 17:0.50454998 18:0.21818 19:0.66817999 20:0.1 21:1 22:-0.30000001 23:0.98636001 24:-1 25:0.57273 26:0.32727 27:0.56981999 28:0.14673001 29:0.42273 30:0.081820004 31:0.48927 32:0.14643 33:1 34:1 #
0.50913182358938369187484340727679 1:1 2:0 3:0.25 4:0.16666999 5:0.46667001 6:0.26666999 7:0.19035999 8:0.23965999 9:0.077660002 10:0.19938999 11:0.0107 12:0.14922 13:-0.023669999 14:0.10188 15:-0.036850002 16:0.063170001 17:-0.037659999 18:0.03458 19:-0.032299999 20:0.01532 21:-0.024739999 22:0.0035699999 23:-0.01726 24:-0.0027300001 25:-0.01097 26:-0.0053900001 27:-0.0062099998 28:-0.0058599999 29:-0.00294 30:-0.0052 31:-0.00089000002 32:-0.0040799999 33:0.00025000001 34:-0.00291 #
0.50913182358938369187484340727679 1:1 2:0 3:0.19465999 4:0.057250001 5:0.041979998 6:0.25191 7:-0.10557 8:0.48866001 9:-0.18321 10:-0.18321 11:-0.41984999 12:0.061069999 13:-0.4542 14:0.091600001 15:-0.16412 16:-0.30533999 17:-0.10305 18:-0.39695001 19:0.18702 20:-0.17557 21:0.34011999 22:-0.11953 23:0.28626001 24:-0.16031 25:0.21645001 26:0.24692 27:0.039129999 28:0.31092 29:-0.038169999 30:0.26335999 31:-0.16794001 32:0.16794001 33:-0.30153 34:-0.33588001 #
0.50913182358938369187484340727679 1:1 2:0 3:0.21428999 4:-0.095239997 5:0.33333001 6:0.071429998 7:0.19047999 8:0.19047999 9:0.23810001 10:0.095239997 11:0.40476 12:0.023809999 13:0.30952001 14:-0.047619998 15:0.30952001 16:-0.047619998 17:0.28571001 18:-0.11905 19:0.33333001 20:0.047619998 21:0.30952001 22:0 23:0.21428999 24:-0.11905 25:0.35714 26:-0.047619998 27:0.22109 28:-0.0229 29:0.19047999 30:0 31:0.16997001 32:-0.020339999 33:0.14693999 34:-0.01877 #
-0.50913182358938369187484340727679 1:1 2:0 3:0.086960003 4:0.0068600001 5:0.13959 6:-0.041189998 7:0.10526 8:-0.082379997 9:0.12586001 10:-0.061779998 11:0.23341 12:-0.01144 13:0.12357 14:0.077799998 15:0.14645 16:-0.13501 17:0.29062 18:-0.048050001 19:0.18993001 20:0.073229998 21:0.1167 22:0 23:0.11213 24:-0.00229 25:0.15103 26:-0.10297 27:0.08467 28:0.01373 29:0.11213 30:-0.066359997 31:0.096110001 32:-0.073229998 33:0.1167 34:-0.06865 #
0.21595966695871357532432455172966 1:1 2:0 3:0.98821998 4:0.02187 5:0.93102002 6:0.34099999 7:0.83903998 8:0.35222 9:0.74706 10:0.48906001 11:0.73584002 12:0.51879001 13:0.55075997 14:0.60179001 15:0.43130001 16:0.66237003 17:0.31799999 18:0.70442998 19:0.28378999 20:0.68873 21:0.075149998 22:0.73695999 23:0.063380003 24:0.71284002 25:-0.16489001 26:0.69713998 27:-0.16556001 28:0.60509998 29:-0.16209 30:0.55804998 31:-0.34717 32:0.44194999 33:-0.33482999 34:0.37465 #
0.2872025671529855883612469824584 1:1 2:0 3:0.83367002 4:0.31456 5:0.65540999 6:0.57670999 7:0.34962001 8:0.70677 9:0.17293 10:0.78947002 11:-0.18976 12:0.79886001 13:-0.41729 14:0.66540998 15:-0.68421 16:0.47744 17:-0.74725002 18:0.19492 19:-0.72180003 20:-0.048870001 21:-0.62029999 22:-0.28195 23:-0.49164999 24:-0.53463 25:-0.26576999 26:-0.66013998 27:-0.0153 28:-0.69705999 29:0.22708 30:-0.64428002 31:0.43099999 32:-0.51205999 33:0.64661998 34:-0.30074999 #
0.50913182358938369187484340727679 1:1 2:0 3:1 4:0.051490001 5:0.99362999 6:0.10123 7:0.96142 8:0.14756 9:0.95512998 10:-0.26495999 11:0.66026002 12:0.54701 13:0.80426002 14:0.25283 15:0.73781002 16:0.27379999 17:0.66775 18:0.28714001 19:0.59614998 20:0.29304001 21:0.52494001 22:0.292 23:0.45581999 24:0.28476 25:0.39023 26:0.27226001 27:0.32929999 28:0.25553 29:0.27381 30:0.23568 31:0.22427 32:0.21378 33:0.18086 34:0.19083001 #
0.50913182358938369187484340727679 1:1 2:0 3:1 4:-0.024010001 5:0.94139999 6:0.065310001 7:0.92106003 8:-0.23255 9:0.77152002 10:-0.16399001 11:0.52798003 12:-0.20275 13:0.56409001 14:-0.0071200002 15:0.34395 16:-0.27456999 17:0.52939999 18:-0.21780001 19:0.45107001 20:-0.17813 21:0.05982 22:-0.35574999 23:0.023089999 24:-0.52879 25:0.03286 26:-0.65157998 27:0.1329 28:-0.53206003 29:0.02431 30:-0.62197 31:-0.057069998 32:-0.59573001 33:-0.046080001 34:-0.65697002 #
0.50913182358938369187484340727679 1:1 2:0 3:1 4:0.035289999 5:1 6:0.18280999 7:1 8:0.26967999 9:1 10:0.25068 11:1 12:0.28777999 13:1 14:0.38643 15:1 16:0.31674001 17:1 18:0.65701002 19:1 20:0.53846002 21:1 22:0.61267 23:1 24:0.59456998 25:0.89592999 26:0.68326002 27:0.89502001 28:0.71373999 29:0.85610998 30:0.67149001 31:0.74388999 32:0.85610998 33:0.71493 34:0.75836998 #
-0.50913182358938369187484340727679 1:1 2:0 3:0.68729001 4:1 5:0.91973001 6:-0.76086998 7:0.81773001 8:0.043480001 9:0.76086998 10:0.10702 11:0.86789 12:0.73746002 13:0.70067 14:0.18227001 15:0.75919998 16:0.13711999 17:0.93478 18:-0.25084001 19:0.70736003 20:0.18729 21:0.64883 22:0.24582 23:0.60201001 24:0.77424997 25:1 26:-0.53846002 27:0.89262003 28:0.22216 29:0.71069998 30:0.53846002 31:1 32:-0.065219998 33:0.56522 34:0.23913001 #
-0.45589614346686063717228876157606 1:1 2:0 3:0 4:0 5:1 6:0.12888999 7:0.88444 8:-0.02 9:0 10:0 11:1 12:-0.42444 13:1 14:0.19555999 15:1 16:-0.05333 17:1 18:-0.81555998 19:0 20:0 21:1 22:-0.039999999 23:1 24:-0.18667001 25:0 26:0 27:1 28:-1 29:0 30:0 31:1 32:0.11778 33:0.90666997 34:-0.095559999 #
-0.48154873828930733203890213189879 1:1 2:0 3:1 4:-0.18829 5:0.93035001 6:-0.36155999 7:-0.10868 8:-0.93597001 9:1 10:-0.04549 11:0.50874001 12:-0.67742997 13:0.34432 14:-0.69707 15:-0.51684999 16:-0.97514999 17:0.054990001 18:-0.62237 19:0.33109 20:-1 21:-0.13151 22:-0.45300001 23:-0.18055999 24:-0.35734001 25:-0.20332 26:-0.26569 27:-0.20468 28:-0.18401 29:-0.1904 30:-0.11593 31:-0.16626 32:-0.062880002 33:-0.13738 34:-0.02447 #
0.50913182358938369187484340727679 1:1 2:0 3:0.51207 4:1 5:1 6:0.5381 7:0.71178001 8:0.80833 9:0.45622 10:0.46427 11:0.33081001 12:1 13:0.21249001 14:1 15:-0.17416 16:1 17:-0.33081001 18:0.98721999 19:-0.61382002 20:1 21:-0.52674001 22:0.71698999 23:-0.88499999 24:0.47894001 25:-1 26:0.35174999 27:-1 28:0.095689997 29:-1 30:-0.16712999 31:-1 32:-0.42225999 33:-0.91903001 34:-0.65556997 #
0.50913182358938369187484340727679 1:1 2:0 3:0.97904998 4:0.15809999 5:0.90112001 6:0.35236999 7:0.82038999 8:0.48561001 9:0.71759999 10:0.64888 11:0.58827001 12:0.73742998 13:0.40349001 14:0.83156002 15:0.25139999 16:0.84803998 17:0.046999998 18:0.85474998 19:-0.12193 20:0.79749 21:-0.26179999 22:0.80754 23:-0.37834999 24:0.71675998 25:-0.51033998 26:0.58323997 27:-0.57586998 28:0.46039999 29:-0.61899 30:0.30796 31:-0.65754002 32:0.18345 33:-0.64134002 34:0.029680001 #
0.16441490860119020722684979318728 1:1 2:0 3:0.90116 4:0.16607 5:0.79299003 6:0.37379 7:0.7299 8:0.50515002 9:0.59784001 10:0.72996998 11:0.44303 12:0.81151998 13:0.24412 14:0.87493002 15:0.064379998 16:0.85038 17:-0.12611 18:0.87396002 19:-0.28738999 20:0.79617 21:-0.46634999 22:0.65924001 23:-0.57134998 24:0.53805 25:-0.68159002 26:0.39951 27:-0.71844 28:0.25835001 29:-0.72368997 30:0.11218 31:-0.71474999 32:-0.05525 33:-0.67698997 34:-0.19904 #
-0.50913182358938369187484340727679 1:1 2:0 3:0.79157001 4:0.16851 5:0 6:0 7:0.56541002 8:0.068740003 9:0.39467999 10:1 11:0.38359001 12:0.99557 13:-0.024390001 14:0.53214997 15:0.23725 16:0.1286 17:-0.02661 18:0.95121998 19:-0.50998002 20:0.84921998 21:-0.102 22:0.38802999 23:-0.42572001 24:0.23725 25:-0.91574001 26:0.8071 27:-0.34145999 28:0.88248003 29:-1 30:0.69401002 31:-1 32:0.1286 33:0 34:0 #
-0.47426419582059314850042142097664 1:1 2:0 3:0.41999999 4:-0.61000001 5:0 6:0 7:1 8:-1 9:0.89999998 10:1 11:0.43000001 12:0.63999999 13:0 14:0 15:0 16:0 17:0.67000002 18:-0.28999999 19:0.83999997 20:-1 21:0 22:0 23:0 24:0 25:0.20999999 26:0.68000001 27:1 28:0.22 29:0 30:0 31:0 32:0 33:0 34:0 #
-0.47442902580885615293482260312885 1:1 2:0 3:0.66161001 4:-1 5:1 6:1 7:1 8:-0.67321002 9:0.80892998 10:-0.40446001 11:1 12:-1 13:1 14:-0.89375001 15:1 16:0.73392999 17:0.17589 18:0.70981997 19:1 20:0.78035998 21:1 22:0.85268003 23:1 24:-1 25:1 26:0.85356998 27:1 28:-0.085709997 29:0.95981997 30:-0.36250001 31:1 32:0.65267998 33:1 34:0.34731999 #
0.50913182358938369187484340727679 1:1 2:0 3:1 4:0.24168 5:1 6:0.48590001 7:1 8:0.72973001 9:1 10:1 11:1 12:1 13:1 14:1 15:1 16:0.77127999 17:1 18:1 19:1 20:1 21:0.74467999 22:1 23:0.89647001 24:1 25:0.64627999 26:1 27:0.38255 28:1 29:0.10819 30:1 31:-0.1737 32:1 33:-0.81383002 34:1 #
0.50913182358938369187484340727679 1:1 2:0 3:1 4:0.068429999 5:1 6:0.14211001 7:1 8:0.22108001 9:1 10:-0.125 11:1 12:0.39495 13:1 14:0.48980999 15:1 16:0.58986002 17:-0.375 18:1 19:1 20:0 21:1 22:0.92000997 23:1 24:1 25:1 26:1 27:1 28:1 29:1 30:0.25 31:1 32:1 33:1 34:1 #
0.50913182358938369187484340727679 1:1 2:0 3:0.32833999 4:0.0252 5:0.15236001 6:0.21278 7:0.14918999 8:0.74002999 9:-0.25705999 10:0.92324001 11:-0.10312 12:0.1938 13:-0.61352003 14:0.25786 15:-0.94053 16:-0.054090001 17:-0.13117 18:-0.14329 19:-0.30315 20:-0.44615 21:-0.11409 22:-0.85597003 23:0.02668 24:-0.22786 25:0.27941999 26:-0.06295 27:0.33737001 28:-0.11876 29:0.27656999 30:-0.11409 31:0.15078001 32:0.13296001 33:0.12197 34:0.20468 #
-0.4735487279578773911481448521954 1:1 2:0 3:-1 4:0.28105 5:0.22222 6:0.15033001 7:-0.75692999 8:-0.70984 9:-0.30719 10:0.71241999 11:-1 12:1 13:-0.81699002 14:0.33987001 15:-0.79084998 16:-0.026140001 17:-0.98039001 18:-0.83007002 19:-0.60131001 20:-0.54247999 21:-0.04575 22:-0.83007002 23:0.94117999 24:-0.94117999 25:-1 26:-0.43136999 27:0.74384999 28:0.091760002 29:-1 30:0.05229 31:0.18301 32:0.026140001 33:-0.40200999 34:-0.48241001 #
-0.47346401812571853318090120410488 1:1 2:0 3:1 4:1 5:1 6:0.51249999 7:0.625 8:-1 9:1 10:1 11:0.025 12:0.03125 13:1 14:1 15:0 16:0 17:1 18:-1 19:1 20:1 21:1 22:1 23:0.3125 24:1 25:1 26:1 27:1 28:1 29:1 30:1 31:-0.94375002 32:1 33:0 34:0 #
-0.474008873767578831071034528577 1:0 2:0 3:0 4:0 5:0 6:0 7:0 8:0 9:0 10:0 11:0 12:0 13:1 14:1 15:1 16:1 17:1 18:-1 19:0 20:0 21:1 22:1 23:1 24:-1 25:1 26:1 27:1 28:0 29:1 30:1 31:1 32:-1 33:0 34:0 #
0.50913182358938369187484340727679 1:1 2:0 3:0.66667002 4:-0.01366 5:0.97403997 6:0.06831 7:0.49590001 8:0.50137001 9:0.75682998 10:-0.0027300001 11:0.65164 12:-0.14071 13:0.40164 14:-0.48907 15:0.39208001 16:0.58743 17:0.76775998 18:0.31830999 19:0.78552002 20:0.11339 21:0.47541001 22:-0.44944999 23:1 24:0.0068299999 25:0.60655999 26:0.069669999 27:0.68655998 28:0.17088 29:0.87568003 30:0.077869996 31:0.55328 32:0.24590001 33:0.13934 34:0.48087001 #
0.50913182358938369187484340727679 1:1 2:0 3:0.64121997 4:0.01403 5:0.34145999 6:-0.024390001 7:0.52750999 8:0.03466 9:0.19512001 10:0.12195 11:0.43313 12:0.04755 13:0.21951 14:0.048780002 15:0.29268 16:0 17:0.36585 18:0 19:0.31707001 20:0.073169999 21:0.26829001 22:0.12195 23:0.23698001 24:0.05813 25:0.21951 26:0.097560003 27:0.19304 28:0.05641 29:0.1741 30:0.055039998 31:0.19512001 32:0 33:0.17072999 34:0.073169999 #
0.50913182358938369187484340727679 1:1 2:0 3:0.88116002 4:0.27474999 5:0.72125 6:0.42881 7:0.61558998 8:0.63661999 9:0.38824999 10:0.90502 11:0.098310001 12:0.96127999 13:-0.20096999 14:0.89200002 15:-0.35736999 16:0.77499998 17:-0.65113997 18:0.6221 19:-0.78767997 20:0.45535001 21:-0.81856 22:0.19095001 23:-0.83942997 24:-0.080789998 25:-0.78333998 26:-0.26356 27:-0.67557001 28:-0.45511001 29:-0.54732001 30:-0.60857999 31:-0.30511999 32:-0.667 33:-0.19312 34:-0.75597 #
-0.50913182358938369187484340727679 1:1 2:0 3:0.38521001 4:0.15564001 5:0.41244999 6:0.073930003 7:0.26459 8:0.24124999 9:0.23345999 10:0.1323 11:0.19454999 12:0.25292 13:0.24514 14:0.36965001 15:0.089489996 16:0.22957 17:-0.038910002 18:0.36965001 19:0.050579999 20:0.24902999 21:0.24902999 22:0.097280003 23:0.077820003 24:0.29960999 25:-0.024940001 26:0.28481999 27:-0.06024 28:0.26256001 29:-0.14786001 30:0.14786001 31:-0.093390003 32:0.31128001 33:-0.19066 34:0.28794 #
-0.47607249506080379086725429260696 1:1 2:0 3:0.42708001 4:-0.5 5:0 6:0 7:0 8:0 9:0.46458 10:0.51042002 11:0.58958 12:0.02083 13:0 14:0 15:0 16:0 17:0.16458 18:-0.45416999 19:0.59166998 20:-0.18333 21:0 22:0 23:0 24:0 25:0.98750001 26:-0.40832999 27:-1 28:-1 29:-0.27917001 30:-0.75625002 31:0 32:0 33:0 34:0 #
-0.46540974073408247768668388744118 1:1 2:0 3:0 4:0 5:0 6:0 7:0 8:0 9:0 10:0 11:0.62194997 12:1 13:0 14:0 15:0 16:0 17:0.36585 18:-0.71951002 19:0.56098002 20:-1 21:0 22:0 23:0 24:0 25:0 26:0 27:1 28:0.10976 29:0 30:0 31:0 32:0 33:0 34:0 #
0.50913182358938369187484340727679 1:1 2:0 3:0.92435998 4:0.36923999 5:0.71976 6:0.68419999 7:0.29302999 8:0.94077998 9:-0.11108 10:0.76526999 11:-0.31604999 12:0.92453003 13:-0.66615999 14:0.78766 15:-0.92145002 16:0.42313999 17:-0.94314998 18:0.095849998 19:-1 20:0.031909999 21:-0.66430998 22:-0.66277999 23:-0.4601 24:-0.78174001 25:-0.13485999 26:-0.88081998 27:0.19765 28:-0.85136998 29:0.48903999 30:-0.70247 31:0.69885999 32:-0.46048 33:0.76065999 34:-0.13194001 #
0.50913182358938369187484340727679 1:1 2:0 3:0.76296002 4:-0.077780001 5:1 6:-0.29629999 7:1 8:-0.85741001 9:0.80000001 10:0.061110001 11:0.45556 12:-0.42778 13:1 14:-0.12581 15:1 16:-0.83519 17:0.49259001 18:0.018519999 19:0.82222003 20:-0.05926 21:0.98215002 22:-0.19938 23:1 24:0.22036999 25:0.69630003 26:-0.26481 27:0.92148 28:-0.24549 29:0.78889 30:0.020369999 31:0.87492001 32:-0.27105001 33:1 34:-0.57037002 #
0.50913182358938369187484340727679 1:1 2:0 3:0.93537003 4:0.13644999 5:0.93716002 6:0.25358999 7:0.85705 8:0.38778999 9:0.79039001 10:0.47126999 11:0.72351998 12:0.59942001 13:0.65259999 14:0.75 15:0.50830001 16:0.73585999 17:0.41628999 18:0.82742 19:0.25538999 20:0.85952002 21:0.13711999 22:0.85614997 23:0.0049399999 24:0.88868999 25:-0.07361 26:0.7978 27:-0.20995 28:0.78004003 29:-0.33169001 30:0.71454 31:-0.38532001 32:0.64363003 33:-0.47419 34:0.55835003 #
-0.47359803848491482947125064129068 1:0 2:0 3:1 4:-1 5:1 6:-1 7:1 8:-1 9:1 10:-1 11:1 12:1 13:1 14:1 15:1 16:-1 17:1 18:1 19:1 20:1 21:1 22:1 23:1 24:-1 25:1 26:-1 27:1 28:-1 29:1 30:0.65625 31:0 32:0 33:1 34:-1 #
-0.47359791933608269554056846573076 1:1 2:0 3:1 4:-0.45161 5:1 6:1 7:0.71215999 8:-1 9:0 10:0 11:0 12:0 13:0 14:0 15:-1 16:0.14516 17:0.54093999 18:-0.3933 19:-1 20:-0.54466999 21:-0.69975001 22:1 23:0 24:0 25:1 26:0.90695 27:0.51612997 28:1 29:1 30:-0.20099001 31:0.25681999 32:1 33:-0.32381999 34:1 #
-0.47368789533111649303620538375981 1:0 2:0 3:1 4:-1 5:1 6:1 7:1 8:1 9:1 10:1 11:1 12:1 13:1 14:-1 15:1 16:-1 17:1 18:1 19:1 20:-1 21:1 22:1 23:1 24:1 25:1 26:-1 27:1 28:1 29:1 30:-1 31:1 32:1 33:1 34:-1 #
0.50913182358938369187484340727679 1:1 2:0 3:1 4:1 5:0.36700001 6:0.061579999 7:0.12993 8:0.92712998 9:-0.27586001 10:0.93595999 11:-0.31527001 12:0.37685001 13:-0.87191999 14:0.36945999 15:-0.92856997 16:-0.08867 17:-0.38916001 18:-0.34235999 19:-0.46551999 20:-0.82511997 21:-0.054189999 22:-0.93595999 23:0.25615999 24:-0.20443 25:0.73791999 26:-0.45950001 27:0.85470998 28:-0.06831 29:1 30:1 31:0.3867 32:0.0024600001 33:0.17758 34:0.79790002 #
0.50913182358938369187484340727679 1:1 2:0 3:0.44444001 4:0.44444001 5:0.53694999 6:0.90763003 7:-0.22222 8:1 9:-0.33333001 10:0.88889003 11:-1 12:0.33333001 13:-1 14:-0.11111 15:-1 16:-0.22222 17:-0.66667002 18:-0.77778 19:0.55555999 20:-1 21:-0.22222 22:-0.77778 23:0.77778 24:-0.22222 25:0.33333001 26:0 27:0.92119998 28:0.45019001 29:0.57454002 30:0.84353 31:0.22222 32:1 33:-0.55555999 34:1 #
0.50913182358938369187484340727679 1:1 2:0 3:0.76626998 4:0.21106 5:0.63935 6:0.38112 7:0.48409 8:0.52499998 9:0.15000001 10:0.22273 11:0.13753 12:0.59565002 13:-0.077270001 14:0.44545001 15:0 16:0.48636001 17:-0.27491 18:0.42014 19:-0.56136 20:0.36818001 21:-0.36590999 22:0.18864 23:-0.40533 24:0.075879999 25:-0.38483 26:-0.03229 27:-0.33941999 28:-0.12486 29:-0.27540001 30:-0.19713999 31:-0.19961999 32:-0.24648 33:-0.11894 34:-0.27217999 #
-0.4735683035805149931896096404671 1:0 2:0 3:0 4:0 5:0 6:0 7:0 8:0 9:1 10:1 11:1 12:1 13:0 14:0 15:0 16:0 17:-0.375 18:-1 19:-1 20:-1 21:0 22:0 23:0 24:0 25:-1 26:-1 27:-1 28:-1 29:-1 30:1 31:1 32:0 33:0 34:0 #
-0.47400265280396952638497509724402 1:1 2:0 3:0.083329998 4:-0.20685001 5:-1 6:1 7:-1 8:1 9:0.71875 10:0.47172999 11:-0.82143003 12:-0.62722999 13:-1 14:-1 15:-1 16:1 17:-0.02753 18:0.59152001 19:-0.42113 20:-0.42113 21:-0.74628001 22:-1 23:-1 24:-0.46801001 25:-1 26:0.23810001 27:1 28:-1 29:-1 30:-0.38914001 31:-1 32:-1 33:-1 34:0.61457998 #
-0.47400265026496651854515107515908 1:1 2:0 3:-0.67935002 4:-1 5:-1 6:1 7:1 8:0.63317001 9:0.035149999 10:-1 11:-1 12:-1 13:1 14:1 15:0.88682997 16:-1 17:-1 18:1 19:0.83840001 20:1 21:1 22:-1 23:-1 24:-1 25:-0.18855999 26:1 27:1 28:-1 29:-1 30:-1 31:-1 32:1 33:1 34:0.33611 #
0.50913182358938369187484340727679 1:1 2:0 3:1 4:0.083800003 5:1 6:0.17387 7:1 8:-0.13308001 9:0.98171997 10:0.64520001 11:1 12:0.47904 13:1 14:0.59113002 15:1 16:0.70757997 17:1 18:0.82776999 19:1 20:0.95099002 21:1 22:1 23:0.98041999 24:1 25:0.91623998 26:1 27:0.83898997 28:1 29:0.74822003 30:1 31:0.64358002 32:1 33:0.52478999 34:1 #
0.3852011054241737952885671347758 1:1 2:0 3:1 4:0.06538 5:1 6:0.20746 7:1 8:0.26280999 9:0.93050998 10:0.32212999 11:0.86773002 12:0.39039001 13:0.75474 14:0.50081998 15:0.79554999 16:0.52320999 17:0.65954 18:0.60755998 19:0.57618999 20:0.62998998 21:0.47806999 22:0.67135 23:0.40553001 24:0.68839997 25:0.34384 26:0.72082001 27:0.27711999 28:0.72386003 29:0.19295999 30:0.70682001 31:0.11372 32:0.72688001 33:0.069899999 34:0.71443999 #
0.50913182358938369187484340727679 1:1 2:0 3:1 4:0.073799998 5:1 6:0.034200002 7:1 8:-0.055629998 9:1 10:0.087640002 11:1 12:0.19651 13:1 14:0.20328 15:1 16:0.12785 17:1 18:0.10561 19:1 20:0.27087 21:1 22:0.44758001 23:1 24:0.41749999 25:1 26:0.20033 27:1 28:0.36743 29:0.95603001 30:0.48640999 31:1 32:0.32492 33:1 34:0.46711999 #
-0.47346834583560365450338736081903 1:1 2:0 3:1 4:-0.095239997 5:-1 6:-1 7:-1 8:-1 9:1 10:0.31746 11:0.81348997 12:0.76190001 13:-1 14:-1 15:-1 16:1 17:0.47363999 18:1 19:1 20:1 21:0.68839002 22:-1 23:-1 24:-1 25:0.82937002 26:0.36508 27:1 28:1 29:1 30:0.50793999 31:-1 32:-0.32539999 33:-1 34:0.72830999 #
-0.28062574569276083069624405652576 1:0 2:0 3:-1 4:1 5:1 6:-1 7:-1 8:1 9:0 10:0 11:1 12:1 13:-1 14:-0.1875 15:1 16:1 17:-1 18:-1 19:1 20:-1 21:-1 22:-1 23:1 24:1 25:1 26:-1 27:1 28:1 29:1 30:1 31:0 32:0 33:-1 34:-1 #
-0.47346443031571050497063879447524 1:1 2:0 3:0.17188001 4:-1 5:-1 6:1 7:0 8:0 9:0 10:0 11:-1 12:1 13:0 14:0 15:-0.61353999 16:-0.67707998 17:0.80520999 18:0.36146 19:0.51978999 20:0.14375 21:0 22:0 23:-1 24:-0.27083001 25:-0.84792 26:0.96249998 27:1 28:1 29:-1 30:0.67707998 31:0 32:0 33:0 34:0 #
0.50913182358938369187484340727679 1:1 2:0 3:0.94489998 4:-0.49311 5:1 6:-0.03692 7:0.98898 8:-0.87052 9:0.90082997 10:0.66942 11:1 12:-0.10104 13:1 14:-0.12493 15:1 16:-0.15017 17:1 18:-0.17681 19:1 20:-0.20491 21:1 22:-0.23452 23:1 24:-0.26571 25:1 26:-0.29852 27:1 28:-0.33304 29:1 30:-0.36930999 31:1 32:-0.40740001 33:1 34:-0.44738999 #
0.50913182358938369187484340727679 1:1 2:0 3:0.99024999 4:-0.05785 5:0.99792999 6:-0.13009 7:0.98663002 8:-0.1943 9:0.99374002 10:-0.25843 11:0.92738003 12:-0.30129999 13:0.92650998 14:-0.37965 15:0.89811999 16:-0.43796 17:0.84921998 18:-0.52064002 19:0.87432998 20:-0.57075 21:0.79016 22:-0.59838998 23:0.74725002 24:-0.64614999 25:0.68282002 26:-0.68479002 27:0.65246999 28:-0.73174 29:0.61009997 30:-0.75353003 31:0.54751998 32:-0.80277997 33:0.49195001 34:-0.83244997 #
0.50913182358938369187484340727679 1:1 2:0 3:0.58939999 4:-0.60926998 5:0.85430002 6:0.55298001 7:0.81125998 8:0.072849996 9:0.56623 10:0.16225 11:0.32780999 12:0.24172001 13:0.50331002 14:0.12252 15:0.63906997 16:0.19868 17:0.71854001 18:0.42715001 19:0.54304999 20:0.13907 21:0.65232003 22:0.27814999 23:0.68874002 24:0.072849996 25:0.51871997 26:0.26653001 27:0.49013001 28:0.27687001 29:0.46215999 30:0.28573999 31:0.43483999 32:0.29324001 33:0.40821001 34:0.29942 #
-0.49705972559082095552085434064793 1:1 2:0 3:0.5984 4:0.40332001 5:0.82809001 6:0.80520999 7:0.76001 8:0.70709002 9:0.84009999 10:-0.10984 11:0.97311002 12:0.079810001 13:0.95823997 14:-0.85727 15:0.91961998 16:0.88444 17:0.95451999 18:-0.052060001 19:0.88673002 20:0.18134999 21:0.98483998 22:-0.69594002 23:0.86669999 24:-0.85755002 25:0.28604001 26:-0.30063 27:1 28:0.17076001 29:0.62958002 30:0.42677 31:0.87756997 32:0.81006998 33:0.81979001 34:0.68822002 #
-0.47343237088882350604990278952755 1:0 2:0 3:-1 4:-1 5:0 6:0 7:0 8:0 9:0 10:0 11:0 12:0 13:0 14:0 15:1 16:-1 17:0 18:0 19:-1 20:-1 21:0 22:0 23:1 24:1 25:1 26:-1 27:1 28:-1 29:0 30:0 31:0 32:0 33:0 34:0 #
-0.47345166147411243962039861798985 1:1 2:0 3:0.94598001 4:-0.02685 5:-1 6:0.26131001 7:-0.36392999 8:0.35639 9:0.69257998 10:-0.63427001 11:1 12:-0.033530001 13:-0.2902 14:-0.0055 15:-0.54852003 16:0.15452 17:0.91921002 18:-0.46270001 19:1 20:-0.50423998 21:-0.29734999 22:-0.31454 23:-0.73864001 24:0.37360999 25:0.83872002 26:-0.46733999 27:0.52208 28:-0.58130002 29:1 30:-0.61392999 31:-0.096340001 32:0.20477 33:-0.061170001 34:0.41913 #
0.50913182358938369187484340727679 1:1 2:0 3:0.88240999 4:0.30634001 5:0.73232001 6:0.57815999 7:0.34108999 8:0.58526999 9:0.05717 10:1 11:-0.092380002 12:0.92118001 13:-0.62402999 14:0.71995997 15:-0.69766998 16:0.32558 17:-0.81422001 18:0.41194999 19:-1 20:-0.0077499999 21:-0.78973001 22:-0.41084999 23:-0.76901001 24:-0.45478001 25:-0.57242 26:-0.67605001 27:-0.3161 28:-0.81875998 29:-0.029789999 30:-0.86840999 31:0.25391999 32:-0.82126999 33:0.00194 34:-0.81686002 #
0.50913182358938369187484340727679 1:1 2:0 3:0.33333001 4:-0.25 5:0.44444001 6:0.22222 7:0.38889 8:0.16666999 9:0.41666999 10:0.13889 11:0.5 12:-0.11111 13:0.54911 14:-0.084430002 15:0.58332998 16:0.33333001 17:0.55555999 18:0.02778 19:0.25 20:-0.19444001 21:0.47222 22:-0.05556 23:0.52778 24:-0.02778 25:0.38889 26:0.083329998 27:0.41543001 28:-0.14256001 29:0.19444001 30:-0.13889 31:0.36923999 32:-0.14809 33:0.083329998 34:-0.5 #
0.50913182358938369187484340727679 1:1 2:0 3:0.95559001 4:-0.00155 5:0.86421001 6:-0.13244 7:0.94981998 8:-0.0046100002 9:0.82809001 10:-0.51170999 11:0.92440999 12:0.10368 13:1 14:-0.14247 15:0.99264002 16:-0.025420001 17:0.95853001 18:-0.15518001 19:0.84012997 20:0.61738998 21:1 22:-0.16321 23:0.87492001 24:-0.08495 25:0.85741001 26:-0.01664 27:0.84131998 28:-0.017689999 29:0.82427001 30:-0.01867 31:0.80633998 32:-0.01957 33:0.78760999 34:-0.02039 #
-0.47241188532933658938972598662076 1:1 2:0 3:0 4:0 5:1 6:-1 7:0 8:0 9:0 10:0 11:1 12:1 13:1 14:-0.25342 15:1 16:0.23288 17:1 18:-1 19:0 20:0 21:0 22:0 23:1 24:1 25:0 26:0 27:1 28:-1 29:0 30:0 31:1 32:-1 33:0 34:0 #
-0.47334496701536382667896418752207 1:1 2:0 3:0 4:0 5:1 6:0.51723999 7:0 8:0 9:0.10991 10:-1 11:0 12:0 13:0 14:0 15:-1 16:-0.22414 17:-0.55711001 18:-0.83297002 19:0.7694 20:0.63147002 21:0 22:0 23:0.53447998 24:0.35668001 25:-0.90302002 26:0.44828001 27:1 28:-1 29:-1 30:0.81572998 31:0 32:0 33:0 34:0 #
-0.47071128002670575840582500859455 1:1 2:0 3:0.73809999 4:0.83332998 5:-0.76190001 6:-0.23810001 7:0.33333001 8:-0.14286 9:0.45238 10:-0.14286 11:-0.67285001 12:0.12808 13:0.33333001 14:0 15:0.28571001 16:-0.071429998 17:-0.38214001 18:0.51163 19:0.23810001 20:0.023809999 21:0.45238 22:0.047619998 23:0.16666999 24:-0.26190001 25:-0.57255 26:-0.10234 27:0.24889 28:-0.51078999 29:1 30:0 31:-0.66667002 32:-0.047619998 33:0.26190001 34:0.023809999 #
-0.50913182358938369187484340727679 1:1 2:0 3:0.29073 4:0.10025 5:0.23308 6:0.17293 7:0.037590001 8:0.34336001 9:0.1203 10:0.26315999 11:0.062660001 12:0.21303 13:-0.047249999 14:0.12767 15:-0.063330002 16:0.079070002 17:-0.063280001 18:0.040970001 19:-0.054310001 20:0.01408 21:-0.04166 22:-0.0027999999 23:-0.028759999 24:-0.01176 25:-0.017550001 26:-0.01505 27:-0.0088600004 28:-0.01475 29:-0.0027999999 30:-0.0125 31:0.00095999998 32:-0.0094799995 33:0.0029 34:-0.0064699999 #
0.50537940331010033911951495610992 1:1 2:0 3:0.94652998 4:0.28713 5:0.72553998 6:0.67247999 7:0.47564 8:0.82454997 9:0.01267 10:0.89108998 11:-0.24871001 12:0.84474999 13:-0.47644001 14:0.56079 15:-0.75880998 16:0.41743001 17:-0.66455001 18:0.072080001 19:-0.65425998 20:-0.19525 21:-0.52474999 22:-0.44 23:-0.30851001 24:-0.55089003 25:-0.041189998 26:-0.64792001 27:0.16085 28:-0.56419998 29:0.36752 30:-0.41901001 31:0.46059 32:-0.22535001 33:0.50375998 34:-0.059799999 #
0.13780038562359625542441676770977 1:1 2:0 3:1 4:0.23395 5:0.91404003 6:0.52012998 7:0.7802 8:0.72144002 9:0.47659999 10:0.84222001 11:0.27638999 12:0.91729999 13:0.094669998 14:0.88248003 15:-0.2198 16:0.91404003 17:-0.34167999 18:0.75516999 19:-0.51359999 20:0.64526999 21:-0.64526999 22:0.44613999 23:-0.74102002 24:0.29161999 25:-0.70837998 26:0.035909999 27:-0.71731001 28:-0.11943 29:-0.64962 30:-0.28183001 31:-0.51251 32:-0.44505 33:-0.37432 34:-0.53319001 #
-0.46974241229976837486148610878445 1:1 2:0 3:0.62120998 4:-0.63635999 5:0 6:0 7:0 8:0 9:0.34470001 10:0.28788 11:0.42803001 12:0.39394 13:-0.075759999 14:0.51893997 15:0.36364001 16:0.31439 17:-0.53788 18:0.32955 19:0.12121 20:-0.14772999 21:0.01894 22:-0.53408998 23:-0.57576001 24:0.17803 25:0.29166999 26:-0.27272999 27:0.25758001 28:-0.57576001 29:0.43182001 30:0.24242 31:0.18182001 32:-0.02273 33:0.17045 34:-0.41666999 #
-0.46423236290068892184734750117059 1:1 2:0 3:0 4:0 5:0 6:0 7:0 8:0 9:0 10:0 11:0 12:0 13:-1 14:1 15:1 16:0.55172002 17:0 18:0 19:0 20:0 21:0 22:0 23:0 24:0 25:0 26:0 27:1 28:1 29:0 30:0 31:0 32:0 33:0 34:0 #
-0.45786059651317867480457834972185 1:1 2:0 3:0.91352999 4:0.81585997 5:-0.72973001 6:1 7:-0.39466 8:0.55734998 9:0.054049999 10:0.29730001 11:-0.18599001 12:-0.10241 13:-0.031580001 14:-0.089699998 15:0.01401 16:-0.034030002 17:0.01108 18:-0.0053699999 19:0.00342 20:0.00096999999 21:0.00047999999 22:0.00075000001 23:-2.9999999e-05 24:0.00019000001 25:-2.9999999e-05 26:1.9999999e-05 27:-9.9999997e-06 28:0 29:0 30:0 31:0 32:0 33:0 34:0 #
0.50913182358938369187484340727679 1:1 2:0 3:1 4:-0.03365 5:1 6:0.0048500001 7:1 8:-0.12062 9:0.88964999 10:0.01198 11:0.73082 12:0.053459998 13:0.85443002 14:0.0082700001 15:0.54591 16:0.0029899999 17:0.83775002 18:-0.13643999 19:0.75534999 20:-0.0854 21:0.70886999 22:-0.27502 23:0.43384999 24:-0.12062 25:0.57528001 26:-0.40220001 27:0.58983999 28:-0.22145 29:0.43099999 30:-0.17365 31:0.60435998 32:-0.2418 33:0.56045002 34:-0.38238001 #
0.50913182358938369187484340727679 1:1 2:0 3:1 4:0.11385 5:0.70019001 6:-0.12144 7:0.81594002 8:0.096770003 9:0.71157002 10:0.01139 11:0.56167001 12:-0.077799998 13:0.69069999 14:0.12524 15:0.58634001 16:0.03985 17:0.53131002 18:-0.034159999 19:0.69450003 20:0.16888 21:0.72676003 22:0.072109997 23:0.32067999 24:0.058820002 25:0.53320998 26:0.37380999 27:0.49090001 28:0.17951 29:0.15180001 30:0.32448 31:0.44141001 32:0.18897 33:0.56167001 34:0.15180001 #
0.50913182358938369187484340727679 1:1 2:0 3:0.79830003 4:0.094169997 5:0.78128999 6:0.20656 7:0.71627998 8:0.28068 9:0.69319999 10:0.41251999 11:0.65916997 12:0.50121999 13:0.57898003 14:0.60813999 15:0.4921 16:0.58445001 17:0.33353999 18:0.67861003 19:0.29587001 20:0.63547999 21:0.095990002 22:0.68103999 23:0.02066 24:0.72236001 25:-0.087480001 26:0.63182998 27:-0.11925 28:0.60696 29:-0.18226001 30:0.56015003 31:-0.25516 32:0.51700997 33:-0.27339 34:0.42467001 #
-0.44959373391729973157282529427903 1:1 2:0 3:-0.205 4:0.28749999 5:0.23 6:0.1 7:0.2825 8:0.3175 9:0.32249999 10:0.34999999 11:0.36285001 12:-0.34617001 13:0.092500001 14:0.27500001 15:-0.094999999 16:0.20999999 17:-0.087499999 18:0.235 19:-0.34187001 20:0.31408 21:-0.47999999 22:-0.079999998 23:0.29908001 24:0.33175999 25:-0.57999998 26:-0.23999999 27:0.32190001 28:-0.28475001 29:-0.47 30:0.185 31:-0.27103999 32:-0.31228 33:0.40445 34:0.0305 #
-0.38862372739814249333889506488049 1:0 2:0 3:0 4:0 5:0 6:0 7:0 8:0 9:0 10:0 11:0 12:0 13:0 14:0 15:0 16:0 17:0 18:0 19:0 20:0 21:0 22:0 23:0 24:0 25:0 26:0 27:1 28:1 29:0 30:0 31:0 32:0 33:0 34:0 #
-0.088536213465039162451297727329802 1:0 2:0 3:0 4:0 5:0 6:0 7:0 8:0 9:0 10:0 11:0 12:0 13:0 14:0 15:0 16:0 17:0 18:0 19:0 20:0 21:0 22:0 23:0 24:0 25:0 26:0 27:1 28:0 29:0 30:0 31:0 32:0 33:0 34:0 #
0.50913182358938369187484340727679 1:1 2:0 3:0.93146998 4:0.29282001 5:0.79917002 6:0.55756003 7:0.59952003 8:0.71596003 9:0.26203001 10:0.92650998 11:0.046360001 12:0.96748 13:-0.23237 14:0.95130002 15:-0.55926001 16:0.81018001 17:-0.73329002 18:0.62384999 19:-0.90995002 20:0.36199999 21:-0.92254001 22:0.060400002 23:-0.93618 24:-0.19837999 25:-0.83192003 26:-0.46906 27:-0.65165001 28:-0.69555998 29:-0.41223001 30:-0.85724998 31:-0.13590001 32:-0.93953001 33:0.10007 34:-0.94823003 #
0.50913182358938369187484340727679 1:1 2:0 3:1 4:-0.24051 5:1 6:-0.20253 7:0.87342 8:-0.10127 9:0.88608003 10:0.01266 11:1 12:0.11392 13:0.92404997 14:0.06329 15:0.84810001 16:-0.037969999 17:0.63291001 18:-0.36708999 19:0.87342 20:-0.01266 21:0.93671 22:0.06329 23:1 24:0.25316 25:0.62024999 26:-0.37975001 27:0.84636998 28:-0.055399999 29:1 30:-0.06329 31:0.53165001 32:0.025319999 33:0.83543998 34:-0.025319999 #
0.49552709592943272598475346057967 1:1 2:0 3:0.26666999 4:-0.1 5:0.53333002 6:0 7:0.33333001 8:-0.13333 9:0.36667001 10:0.11667 11:0.56667 12:0.01667 13:0.71666998 14:0.083329998 15:0.69999999 16:-0.066670001 17:0.53333002 18:0.2 19:0.41666999 20:-0.01667 21:0.31667 22:0.2 23:0.69999999 24:0 25:0.25 26:0.13333 27:0.46213999 28:0.054389998 29:0.40000001 30:0.033330001 31:0.46667001 32:0.033330001 33:0.41666999 34:-0.050000001 #
0.50913182358938369187484340727679 1:1 2:0 3:1 4:0.54901999 5:0.62744999 6:1 7:0.019610001 8:1 9:-0.49020001 10:0.92157 11:-0.82353002 12:0.58824003 13:-1 14:0.11765 15:-0.96078002 16:-0.33333001 17:-0.64705998 18:-0.68627 19:-0.23529001 20:-0.86274999 21:0.35293999 22:-1 23:0.74510002 24:-0.72548997 25:0.92157 26:-0.21569 27:0.92874002 28:0.21876 29:0.72548997 30:0.56862998 31:0.23529001 32:0.90196002 33:-0.11765 34:0.90196002 #
0.45917037769749713405076363414992 1:1 2:0 3:1 4:0.097709998 5:1 6:0.12197 7:1 8:0.22574 9:0.98602003 10:0.092370003 11:0.94929999 12:0.19211 13:0.92992002 14:0.24288 15:0.89240998 16:0.28343001 17:0.85529 18:0.26721001 19:0.83656001 20:0.33129001 21:0.83393002 22:0.31698 23:0.74829 24:0.39596999 25:0.76192999 26:0.34658 27:0.68452001 28:0.42746001 29:0.62764001 30:0.46031001 31:0.56791002 32:0.47033 33:0.54251999 34:0.50902998 #
0.50913182358938369187484340727679 1:1 2:0 3:0.97714001 4:0.19049001 5:0.82683003 6:0.46259001 7:0.71771002 8:0.58732003 9:0.47968 10:0.84277999 11:0.31409001 12:0.92642999 13:0.10289 14:0.93945003 15:-0.13254 16:0.84289998 17:-0.3202 18:0.91623998 19:-0.52144998 20:0.79525 21:-0.68273997 22:0.49507999 23:-0.77407998 24:0.33537 25:-0.85376 26:0.17849 27:-0.83314002 28:-0.01358 29:-0.82366002 30:-0.19321001 31:-0.67289001 32:-0.33662 33:-0.59943002 34:-0.49700001 #
0.23828079541574442856699533876963 1:1 2:0 3:0.91667002 4:0.29166999 5:0.83332998 6:-0.16666999 7:0.70832998 8:0.25 9:0.875 10:-0.083329998 11:0.91667002 12:0.041669998 13:0.83332998 14:0.125 15:0.70832998 16:0 17:0.875 18:0.041669998 19:1 20:0.083329998 21:0.66667002 22:-0.083329998 23:0.75 24:0.16666999 25:0.83332998 26:-0.125 27:0.83796 28:0.055029999 29:1 30:0.20833001 31:0.70832998 32:0 33:0.70832998 34:0.041669998 #
0.23623592833720882810943919594138 1:1 2:0 3:0.93971997 4:0.28082001 5:0.80486 6:0.52820998 7:0.58166999 8:0.73150998 9:0.34961 10:0.80510998 11:0.10797 12:0.90403003 13:-0.20015 14:0.89335001 15:-0.3973 16:0.82163 17:-0.58835 18:0.62866998 19:-0.76305002 20:0.40368 21:-0.81261998 22:0.18888 23:-0.81317002 24:-0.04284 25:-0.75273001 26:-0.26883 27:-0.63237 28:-0.46438 29:-0.46421999 30:-0.61445999 31:-0.26389 32:-0.70835 33:-0.089369997 34:-0.71272999 #
0.22851268036583441412012973614765 1:1 2:0 3:0.49515 4:0.097089998 5:0.29611999 6:0.058249999 7:0.34951001 8:0 9:0.57282001 10:-0.02427 11:0.58252001 12:0.02427 13:0.33495 14:0.04854 15:0.52427 16:0.0048500001 17:0.47086999 18:-0.1068 19:0.43204001 20:0.0048500001 21:0.34951001 22:0.058249999 23:0.18932 24:0.25727999 25:0.31068 26:-0.15049 27:0.36546999 28:0.038150001 29:0.39320001 30:0.17476 31:0.26214001 32:0 33:0.37379 34:-0.01942 #
0.3224864395183028031866001583694 1:1 2:0 3:0.92308003 4:0.15451001 5:0.86399001 6:0.29756999 7:0.72582 8:0.36790001 9:0.70587999 10:0.56830001 11:0.57449001 12:0.62718999 13:0.43270001 14:0.74676001 15:0.31705001 16:0.67697001 17:0.19128001 18:0.76818001 19:0.046859998 20:0.76170999 21:-0.12064 22:0.76968998 23:-0.18479 24:0.71327001 25:-0.29291001 26:0.65707999 27:-0.38798001 28:0.58552998 29:-0.46799001 30:0.50130999 31:-0.53145999 32:0.40731999 33:-0.56230998 34:0.35095 #
0.44666847264771514236514349249774 1:1 2:0 3:0.95704001 4:-0.12095 5:0.63318002 6:-0.1269 7:0.96364999 8:-0.18242 9:0.97026002 10:0.084600002 11:0.92003 12:-0.01124 13:0.83543003 14:-0.24719 15:1 16:-0.31395 17:0.99273002 18:-0.21216001 19:0.98677999 20:-0.21018 21:1 22:-0.27164999 23:0.93125999 24:-0.39458001 25:1 26:-0.19233 27:0.88792998 28:-0.31564999 29:0.81427997 30:-0.23728 31:0.89095002 32:-0.31856999 33:0.69531 34:-0.41573 #
-0.34768392631867778286292036682426 1:1 2:0 3:0.31033999 4:-0.10345 5:0.24138001 6:-0.10345 7:0.2069 8:-0.068970002 9:0.074050002 10:-0.054310001 11:0.036490001 12:-0.03689 13:0.017069999 14:-0.02383 15:0.0074100001 16:-0.01482 17:0.00281 18:-0.0089299995 19:0.00078 20:-0.0052299998 21:-2.9999999e-05 22:-0.0029899999 23:-0.00028000001 24:-0.00166 25:-0.00031 26:-0.00089999998 27:-0.00025000001 28:-0.00047999999 29:-0.00018 30:-0.00023999999 31:-0.00012 32:-0.00012 33:-7.9999998e-05 34:-5.9999998e-05 #
0.48107116215033274286838604894001 1:1 2:0 3:0.89705998 4:0.38235 5:0.91175997 6:0.375 7:0.74264997 8:0.67646998 9:0.45587999 10:0.77941 11:0.19118001 12:0.88971001 13:-0.022059999 14:0.86028999 15:-0.20588 16:0.82353002 17:-0.375 18:0.67646998 19:-0.5 20:0.47793999 21:-0.73528999 22:0.38235 23:-0.86028999 24:0.088239998 25:-0.74264997 26:-0.125 27:-0.67925 28:-0.24131 29:-0.55146998 30:-0.42647001 31:-0.44117999 32:-0.50735003 33:-0.28676 34:-0.56617999 #
0.35880735302124033836435046396218 1:1 2:0 3:0.94331002 4:0.19959 5:0.96131998 6:0.40803 7:0.80514002 8:0.56568998 9:0.56686997 10:0.70829999 11:0.41835999 12:0.83230001 13:0.14939 14:0.89489001 15:0.05167 16:0.93681997 17:-0.24742 18:0.83938998 19:-0.42811 20:0.75554001 21:-0.50251001 22:0.62563002 23:-0.65515 24:0.50427997 25:-0.68851 26:0.30912 27:-0.77096999 28:0.15618999 29:-0.75405997 30:-0.043990001 31:-0.75199002 32:-0.17921001 33:-0.66931999 34:-0.34367001 #
-0.49251848606908005256954652395507 1:1 2:0 3:1 4:1 5:1 6:1 7:0.91009998 8:1 9:-0.26969999 10:1 11:-0.83152002 12:1 13:-1 14:1 15:-1 16:0.72526002 17:-1 18:-0.57779002 19:-1 20:-0.42052001 21:-1 22:-1 23:-0.52837998 24:-1 25:0.90013999 26:-1 27:1 28:-1 29:1 30:-1 31:1 32:-0.34685999 33:1 34:0.34845001 #
0.2872025671529855883612469824584 1:1 2:0 3:0.64946997 4:-0.078960001 5:0.58263999 6:-0.14380001 7:-0.13129 8:-0.21383999 9:0.29796001 10:0.04403 11:0.38095999 12:-0.26339 13:0.28931001 14:-0.31997001 15:0.034589998 16:-0.18946999 17:0.20269001 18:-0.29440999 19:0.15196 20:-0.29052001 21:0.095129997 22:-0.31525001 23:0.065559998 24:-0.26795 25:0.03004 26:-0.25123999 27:-0.00046000001 28:-0.2321 29:-0.02612 30:-0.21129 31:-0.047169998 32:-0.1895 33:0.01336 34:-0.27201 #
-0.50508106588683998605660008252016 1:1 2:0 3:0 4:0 5:0.98918998 6:-0.22702999 7:0.18919 8:-0.054049999 9:0 10:0 11:0.93243003 12:0.072970003 13:1 14:-0.2 15:1 16:0.070270002 17:1 18:-0.11351 19:0 20:0 21:1 22:-0.21081001 23:1 24:-0.41622001 25:0 26:0 27:1 28:-0.17568 29:0 30:0 31:1 32:-0.25946 33:0.28918999 34:-0.15676001 #
0.2872025671529855883612469824584 1:1 2:0 3:0.41931999 4:0.12482 5:0.34999999 6:0.125 7:0.23182 8:0.27954999 9:-0.036359999 10:0.44317999 11:0.045170002 12:0.36194 13:-0.19091 14:0.33636001 15:-0.13349999 16:0.27322 17:0.02727 18:0.40454999 19:-0.34773001 20:0.12727 21:-0.20028 22:0.050779998 23:-0.18636 24:0.36364001 25:-0.14003 26:-0.048020002 27:-0.099710003 28:-0.071139999 29:-1 30:-1 31:-0.02916 32:-0.074639998 33:-0.00526 34:-0.063139997 #
0.2872025671529855883612469824584 1:1 2:0 3:1 4:-0.57224 5:0.99150002 6:-0.73370999 7:0.89517999 8:-0.9745 9:1 10:-0.35817999 11:1 12:-0.23229 13:0.62889999 14:-0.86401999 15:1 16:-0.57534999 17:1 18:-0.79602998 19:0.76770997 20:-0.88951999 21:0.96600997 22:-1 23:0.70120001 24:-0.74896002 25:0.61945999 26:-0.76903999 27:0.53776997 28:-0.77986002 29:0.81019998 30:-1 31:1 32:-1 33:0.30445001 34:-0.76112002 #
-0.48344046177433941391399230269599 1:1 2:0 3:1 4:0.57819998 5:1 6:-1 7:1 8:-1 9:1 10:-1 11:1 12:-1 13:1 14:-1 15:1 16:-1 17:1 18:-1 19:1 20:-1 21:1 22:-0.62796003 23:1 24:-1 25:1 26:-1 27:1 28:-1 29:1 30:-1 31:1 32:-1 33:1 34:-1 #
0.2872025671529855883612469824584 1:1 2:0 3:0.68198001 4:-0.17314 5:0.82331997 6:0.21908 7:0.46643001 8:0.32861999 9:0.25795001 10:0.58304 11:1 12:-0.15194 13:0.0106 14:0.44523001 15:0.0106 16:0.38868999 17:0.18681 18:0.41168001 19:0.10567 20:0.36353001 21:0.043249998 22:0.30745 23:-0.00082999998 24:0.24936 25:-0.028620001 26:0.19405 27:-0.043140002 28:0.14481001 29:-0.047789998 30:0.10349 31:-0.045850001 32:0.070639998 33:-0.040130001 34:0.04586 #
-0.47768141872519898072368960129097 1:1 2:0 3:0.71253002 4:-0.02595 5:0.41286999 6:-0.23067001 7:0.98018998 8:-0.094729997 9:0.99708998 10:-0.10236 11:1 12:-0.10951 13:0.58964998 14:1 15:0.83726001 16:-1 17:0.82270002 18:-0.17862999 19:0.80760002 20:-0.28257 21:-0.25914001 22:0.92729998 23:0.51933002 24:0.054559998 25:0.65493 26:-0.20392001 27:0.93124002 28:-0.41306999 29:0.63810998 30:-0.21901 31:0.86136001 32:-0.87353998 33:-0.23186 34:-1 #
0.2872025671529855883612469824584 1:1 2:0 3:1 4:0.45455 5:1 6:0.54544997 7:0.81818002 8:0.63635999 9:1 10:-0.090910003 11:1 12:0 13:0.81818002 14:-0.45455 15:0.63635999 16:0.27272999 17:1 18:-0.63635999 19:1 20:-0.27272999 21:0.90908998 22:-0.45455 23:1 24:0.077500001 25:1 26:-0.090910003 27:1 28:0.08867 29:1 30:0.36364001 31:1 32:0.63635999 33:0.72727001 34:0.27272999 #
0.2872025671529855883612469824584 1:1 2:0 3:1 4:-0.15899 5:0.72314 6:0.27686 7:0.83442998 8:-0.58388001 9:1 10:-0.28207001 11:1 12:-0.49862999 13:0.79961997 14:-0.12526999 15:0.76836997 16:0.14638001 17:1 18:0.39337 19:1 20:0.26589999 21:0.96354002 22:-0.01891 23:0.92598999 24:-0.91338003 25:1 26:0.14803 27:1 28:-0.11582 29:1 30:-0.11129 31:1 32:0.53372002 33:1 34:-0.57757998 #
-0.47677617610334271924799054431787 1:1 2:0 3:-0.54180002 4:0.14861 5:-0.33746001 6:0.73374999 7:0.52012002 8:-0.13932 9:0.31889001 10:-0.068109997 11:0.20743001 12:-0.1517 13:0.47367999 14:0.089780003 15:0.56347001 16:-0.1548 17:0.16408999 18:0.45201001 19:0.33746001 20:0.034060001 21:0.50463998 22:0.071209997 23:-0.63777 24:-0.61610001 25:1 26:0.65635002 27:0.41348001 28:-0.40116 29:-0.1517 30:0.11146 31:0.02399 32:0.5582 33:0.52631998 34:-0.089780003 #
-0.47386068187292629261264664819464 1:1 2:0 3:0.84557003 4:-0.0858 5:-0.31744999 6:-0.80553001 7:-0.089610003 8:-0.56435001 9:0.80647999 10:0.045759998 11:0.89513999 12:-0.0076299999 13:-0.18494 14:0.63966 15:-0.20018999 16:-0.68065 17:0.85701001 18:-0.11344 19:0.77978998 20:-0.15729 21:-0.069590002 22:0.50809997 23:-0.34128001 24:0.80934 25:0.78931999 26:-0.037179999 27:0.70881999 28:-0.25288001 29:0.77884001 30:-0.14109001 31:-0.21354 32:-0.78170002 33:-0.18494 34:-0.59867001 #
-0.47344141977392972808758031533216 1:1 2:0 3:1 4:-1 5:0 6:0 7:0.77941 8:-0.99264997 9:0.80882001 10:0.55146998 11:-0.41912001 12:-0.94853002 13:0 14:0 15:0 16:0 17:0.72059 18:-0.77205998 19:0.73528999 20:-0.60294002 21:0 22:0 23:0.18381999 24:-1 25:-1 26:-1 27:-1 28:-1 29:1 30:-1 31:1 32:-1 33:0 34:0 #
0.2872025671529855883612469824584 1:1 2:0 3:1 4:0.14286 5:1 6:0.71429002 7:1 8:0.71429002 9:1 10:-0.14286 11:0.85714 12:-0.14286 13:1 14:0.02534 15:1 16:0 17:0.42857 18:-0.14286 19:1 20:0.036169998 21:1 22:-0.28571001 23:1 24:0 25:0.28571001 26:-0.28571001 27:1 28:0.048909999 29:1 30:0.051819999 31:1 32:0.57143003 33:1 34:0 #
0.2872025671529855883612469824584 1:1 2:0 3:0.90547001 4:0.41113001 5:0.65354002 6:0.74760997 7:0.29921001 8:0.95905 9:-0.13342001 10:0.97820002 11:-0.52236003 12:0.83262998 13:-0.79657 14:0.55085999 15:-0.96631002 16:0.15192001 17:-0.93001002 18:-0.25554001 19:-0.71863002 20:-0.59378999 21:-0.41545999 22:-0.85205001 23:-0.022500001 24:-0.93787998 25:0.36318001 26:-0.85368001 27:0.67537999 28:-0.61958998 29:0.85977 30:-0.28123 31:0.88654 32:0.097999997 33:0.75494999 34:0.46301001 #
0.2872025671529855883612469824584 1:1 2:0 3:1 4:-0.41457 5:1 6:0.76130998 7:0.87059999 8:0.18593 9:1 10:-0.099250004 11:0.93844002 12:0.4799 13:0.65451998 14:-0.1608 15:1 16:0.0087900003 17:0.97613001 18:-0.50125998 19:0.80024999 20:-0.24496999 21:0.88064998 22:-0.19095001 23:1 24:-0.12312 25:0.93593001 26:0.10678 27:0.9289 28:-0.072489999 29:1 30:-0.27386999 31:0.43970001 32:0.19848999 33:0.51381999 34:-0.054019999 #
-0.47362335459835669393413581929053 1:1 2:0 3:-1 4:-1 5:-0.50694001 6:1 7:1 8:-1 9:1 10:0.53819001 11:0 12:0 13:0.23958001 14:-1 15:1 16:1 17:0 18:0 19:1 20:1 21:1 22:1 23:0 24:0 25:-0.71528 26:1 27:0.33333001 28:-1 29:1 30:-1 31:0.69792002 32:-1 33:0.47569001 34:1 #
-0.473569214481927069915201400363 1:1 2:0 3:1 4:-1 5:1 6:1 7:-1 8:1 9:1 10:-1 11:1 12:-1 13:-1 14:-1 15:-1 16:1 17:1 18:1 19:1 20:1 21:-1 22:1 23:1 24:-1 25:1 26:-1 27:1 28:1 29:1 30:1 31:-1 32:1 33:-1 34:1 #
-0.47356921448063205026812738651643 1:1 2:0 3:1 4:1 5:0 6:0 7:1 8:-1 9:-1 10:-1 11:1 12:1 13:1 14:-1 15:0 16:0 17:1 18:-1 19:1 20:1 21:0 22:0 23:1 24:-1 25:-1 26:-1 27:1 28:1 29:-1 30:1 31:-1 32:1 33:0 34:0 #
0.2872025671529855883612469824584 1:1 2:0 3:0.4709 4:0.22751001 5:0.42328 6:0.33598 7:0.25661001 8:0.47619 9:0.018519999 10:0.49471 11:-0.021159999 12:0.53968 13:-0.34127 14:0.31217 15:-0.4127 16:0.32539999 17:-0.51586998 18:0.068779998 19:-0.5 20:-0.1164 21:-0.14815 22:-0.1455 23:-0.14815 24:-0.38095 25:-0.23280001 26:0.0026499999 27:0.035739999 28:-0.31738999 29:0.15873 30:-0.21693 31:0.24868 32:-0.24338999 33:0.26719999 34:0.042330001 #
0.2872025671529855883612469824584 1:1 2:0 3:1 4:0.51515001 5:0.45455 6:0.33333001 7:0.06061 8:0.36364001 9:-0.32104 10:0.73062003 11:-0.45455 12:0.48484999 13:-0.57576001 14:0 15:-0.57576001 16:-0.12121 17:-0.33333001 18:-0.48484999 19:-0.090910003 20:-0.84847999 21:0.48484999 22:-0.57576001 23:0.57576001 24:-0.42423999 25:1 26:-0.39394 27:0.72961003 28:0.12331 29:0.96969998 30:0.57576001 31:0.24242 32:0.36364001 33:0.090910003 34:0.33333001 #
0.2872025671529855883612469824584 1:1 2:0 3:0.34694001 4:0.20408 5:0.46939 6:0.2449 7:0.40816 8:0.20408 9:0.46939 10:0.44898 11:0.30612001 12:0.59184003 13:0.12245 14:0.55102003 15:0 16:0.51020002 17:-0.061220001 18:0.55102003 19:-0.20408 20:0.55102003 21:-0.28571001 22:0.44898 23:-0.28571001 24:0.32653001 25:-0.61224002 26:0.22449 27:-0.46579 28:0.14895 29:-0.59184003 30:0.18367 31:-0.34694001 32:0 33:-0.26530999 34:-0.2449 #
-0.47362334571430886320797526423121 1:0 2:0 3:1 4:1 5:1 6:-1 7:1 8:1 9:-1 10:1 11:0 12:0 13:1 14:1 15:0 16:0 17:0 18:0 19:-1 20:1 21:-1 22:1 23:1 24:1 25:1 26:-1 27:1 28:1 29:1 30:1 31:1 32:-1 33:-1 34:1 #
-0.47356921200542789751608552251128 1:1 2:0 3:0 4:0 5:-1 6:-1 7:-1 8:1 9:0 10:0 11:-1 12:1 13:1 14:1 15:1 16:-1 17:0 18:0 19:0 20:0 21:-1 22:-1 23:-1 24:1 25:1 26:0.4375 27:1 28:-1 29:0 30:0 31:-1 32:-1 33:-1 34:1 #
-0.47359735754020026998745152013726 1:0 2:0 3:-1 4:-1 5:0 6:0 7:-1 8:1 9:1 10:-0.375 11:0 12:0 13:0 14:0 15:0 16:0 17:1 18:-1 19:-1 20:-1 21:1 22:-1 23:0 24:0 25:1 26:-1 27:-1 28:1 29:-1 30:-1 31:0 32:0 33:-1 34:1 #
0.2872025671529855883612469824584 1:1 2:0 3:1 4:-0.37838 5:0.64864999 6:0.29730001 7:0.64864999 8:-0.24324 9:0.86486 10:0.18919 11:1 12:-0.27026999 13:0.51350999 14:0 15:0.62162 16:-0.054049999 17:0.32431999 18:-0.21622001 19:0.71833003 20:-0.17666 21:0.62162 22:0.054049999 23:0.75676 24:0.13514 25:0.35135001 26:-0.29730001 27:0.61031002 28:-0.22163001 29:0.58477998 30:-0.23027 31:0.72973001 32:-0.59459001 33:0.51350999 34:-0.24324 #
0.2872025671529855883612469824584 1:1 2:0 3:1 4:-0.28428 5:1 6:-0.25345999 7:0.94622999 8:-0.35093999 9:1 10:-0.30566001 11:0.92736 12:-0.49057001 13:0.90818 14:-0.44119 15:0.75722998 16:-0.58898997 17:0.69748002 18:-0.58019 19:0.59622997 20:-0.57578999 21:0.68458998 22:-0.70975 23:0.54465002 24:-0.87326998 25:0.49214 26:-0.73333001 27:0.35504001 28:-0.76054001 29:0.26352 30:-0.78239 31:0.16604 32:-0.73145002 33:0.13993999 34:-0.69999999 #
0.2872025671529855883612469824584 1:1 2:0 3:1 4:-0.081830002 5:1 6:-0.11326 7:0.99246001 8:-0.29802001 9:1 10:-0.33074999 11:0.96662003 12:-0.34281 13:0.85788 14:-0.47264999 15:0.91904002 16:-0.4817 17:0.73084003 18:-0.65223998 19:0.68131 20:-0.63543999 21:0.82450002 22:-0.78315997 23:0.58828998 24:-0.74785 25:0.67032999 26:-0.96296 27:0.48756999 28:-0.85668999 29:0.37941 30:-0.83893001 31:0.24117 32:-0.88845998 33:0.29221001 34:-0.89621001 #
-0.47359735542823205856066692831519 1:0 2:0 3:-1 4:1 5:1 6:1 7:0 8:0 9:1 10:-1 11:1 12:-1 13:1 14:-1 15:-1 16:-1 17:0 18:0 19:-1 20:-1 21:0 22:0 23:0 24:0 25:-1 26:-1 27:1 28:-1 29:1 30:1 31:-1 32:-1 33:0 34:0 #
-0.47362334309425319078812322004524 1:0 2:0 3:1 4:-1 5:-1 6:1 7:-1 8:1 9:1 10:1 11:1 12:1 13:-1 14:-1 15:-1 16:-1 17:1 18:1 19:1 20:-1 21:-1 22:-1 23:-1 24:-1 25:1 26:0 27:1 28:-1 29:1 30:-1 31:-1 32:1 33:-1 34:1 #
-0.47368781851298880081202469227719 1:0 2:0 3:1 4:1 5:1 6:-1 7:0 8:0 9:0 10:0 11:-1 12:-1 13:0 14:0 15:0 16:0 17:-1 18:1 19:1 20:1 21:-1 22:1 23:-1 24:1 25:1 26:-1 27:1 28:1 29:-1 30:1 31:1 32:1 33:0 34:0 #
0.2872025671529855883612469824584 1:1 2:0 3:0.90932 4:0.087909997 5:0.86527997 6:0.16888 7:1 8:0.16598 9:0.55186999 10:0.68154001 11:0.70207 12:0.36719 13:0.16286001 14:0.42739001 15:0.57620001 16:0.46086001 17:0.51067001 18:0.49618 19:0.31639001 20:0.12966999 21:0.37823999 22:0.54461998 23:0.31274 24:0.55826002 25:0.24856 26:0.56527001 27:0.18626 28:0.56604999 29:0.12635 30:0.56101 31:0.06927 32:0.55061001 33:0.12137 34:0.67738998 #
0.2872025671529855883612469824584 1:1 2:0 3:0.89589 4:0.39286 5:0.66128999 6:0.71803999 7:0.29521 8:0.90824002 9:-0.047869999 10:0.94414997 11:-0.45725 12:0.84605002 13:-0.7766 14:0.58511001 15:-0.92818999 16:0.25132999 17:-0.92281997 18:-0.15315001 19:-0.76064003 20:-0.48403999 21:-0.50931001 22:-0.76196998 23:-0.14895 24:-0.88590997 25:0.21581 26:-0.85702997 27:0.53228998 28:-0.68593001 29:0.74845999 30:-0.40656 31:0.83142 32:-0.070289999 33:0.76862001 34:0.27926001 #
0.2872025671529855883612469824584 1:1 2:0 3:0.7087 4:-0.24783 5:0.64348 6:0.043480001 7:0.45217001 8:0.38260999 9:0.65217 10:0.18261001 11:0.5 12:0.26956999 13:0.57826 14:-0.23043001 15:0.50435001 16:0.37825999 17:0.38696 18:-0.42609 19:0.36087 20:-0.26087001 21:0.26956999 22:0.11739 23:0.53245997 24:-0.038449999 25:0.31303999 26:-0.12174 27:0.4993 28:-0.042640001 29:0.48348001 30:-0.04448 31:0.64348 32:-0.25217 33:0.50435001 34:0.14782999 #
-0.47400264304610706389553342887666 1:0 2:0 3:-1 4:1 5:0 6:0 7:0 8:0 9:-1 10:1 11:1 12:1 13:0 14:0 15:0 16:0 17:1 18:-1 19:-1 20:1 21:1 22:1 23:0 24:0 25:-1 26:-1 27:1 28:-1 29:1 30:1 31:-1 32:1 33:0 34:0 #
0.2872025671529855883612469824584 1:1 2:0 3:0.47938001 4:-0.12371 5:0.42783999 6:-0.12371 7:0.70103002 8:-0.39175001 9:0.73196 10:0.072159998 11:0.26289001 12:-0.21649 13:0.49485001 14:0.15978999 15:0.45361 16:-0.11856 17:0.42267999 18:0.061859999 19:0.5 20:-0.27320001 21:0.54639 22:0.18557 23:0.42267999 24:0.08247 25:0.70618999 26:0.19588 27:0.53395998 28:-0.12447 29:0.15464 30:-0.26289001 31:0.47422999 32:0.041239999 33:0.45361 34:-0.51546001 #
-0.4734352053428099726950506465073 1:0 2:0 3:1 4:1 5:1 6:-1 7:1 8:-1 9:1 10:1 11:0 12:0 13:1 14:-1 15:0 16:0 17:0 18:0 19:0 20:0 21:-1 22:1 23:1 24:1 25:0 26:0 27:1 28:1 29:0 30:0 31:-1 32:-1 33:0 34:0 #
0.2872025671529855883612469824584 1:1 2:0 3:1 4:-0.14236 5:1 6:-0.16256 7:1 8:-0.23656 9:1 10:-0.075139999 11:1 12:-0.25009999 13:1 14:-0.26161 15:1 16:-0.21975 17:1 18:-0.38606 19:1 20:-0.46162 21:1 22:-0.35519001 23:1 24:-0.59661001 25:1 26:-0.47643 27:0.98820001 28:-0.49687001 29:1 30:-0.75819999 31:1 32:-0.75761002 33:1 34:-0.84437001 #
-0.47400254319897255905758015614992 1:0 2:0 3:-1 4:1 5:1 6:-1 7:0 8:0 9:0 10:0 11:1 12:-1 13:1 14:1 15:0 16:0 17:1 18:-1 19:0 20:0 21:0 22:0 23:1 24:1 25:-1 26:1 27:1 28:-1 29:-1 30:1 31:-1 32:-1 33:0 34:0 #
-0.47362564824644109995332996732031 1:1 2:0 3:1 4:-1 5:1 6:1 7:1 8:1 9:1 10:-0.5 11:1 12:1 13:1 14:1 15:1 16:1 17:0 18:0 19:1 20:1 21:1 22:1 23:1 24:-1 25:1 26:1 27:1 28:0.625 29:1 30:-0.75 31:-0.75 32:1 33:1 34:1 #
0.2872025671529855883612469824584 1:1 2:0 3:0.96354997 4:-0.07198 5:1 6:-0.14332999 7:1 8:-0.21313 9:1 10:-0.36173999 11:0.92570001 12:-0.43568999 13:0.94510001 14:-0.40667999 15:0.90391999 16:-0.46381 17:0.98304999 18:-0.35257 19:0.84536999 20:-0.6602 21:0.75345999 22:-0.60588998 23:0.69637001 24:-0.64225 25:0.85105997 26:-0.65439999 27:0.57577002 28:-0.69712001 29:0.25435001 30:-0.63919002 31:0.45113999 32:-0.72779 33:0.38894999 34:-0.7342 #
0.2872025671529855883612469824584 1:1 2:0 3:0.32789001 4:0.11042 5:0.15970001 6:0.29308 7:0.1402 8:0.74484998 9:-0.25130999 10:0.91992998 11:-0.16503 12:0.26664001 13:-0.63713998 14:0.24865 15:-0.97649997 16:-0.00337 17:-0.23227 18:-0.19909 19:-0.30522001 20:-0.48886001 21:-0.14426 22:-0.89990997 23:0.093450002 24:-0.28916001 25:0.28307 26:-0.1856 27:0.39599001 28:-0.11498 29:0.31005001 30:0.056139998 31:0.21443 32:0.2054 33:0.13376001 34:0.26422 #
-0.47343281803277126318363343671081 1:0 2:0 3:1 4:-1 5:1 6:1 7:1 8:1 9:1 10:1 11:1 12:1 13:1 14:-1 15:1 16:1 17:1 18:1 19:1 20:-1 21:1 22:-1 23:1 24:-1 25:1 26:-1 27:1 28:1 29:1 30:-1 31:1 32:1 33:1 34:1 #
-0.47354500546928662840784340914979 1:0 2:0 3:1 4:-1 5:1 6:1 7:1 8:-1 9:1 10:1 11:1 12:-1 13:1 14:-1 15:1 16:-1 17:1 18:1 19:1 20:1 21:1 22:1 23:1 24:-1 25:1 26:1 27:1 28:1 29:1 30:1 31:1 32:1 33:1 34:-1 #
0.2872025671529855883612469824584 1:1 2:0 3:0.88305002 4:-0.21996 5:1 6:0.36373001 7:0.82402998 8:0.19205999 9:0.85086 10:0.059009999 11:0.90557998 12:-0.042920001 13:0.85193002 14:0.25 15:0.77897 16:0.25321999 17:0.69205999 18:0.5794 19:0.71030003 20:0.39056 21:0.73176003 22:0.27575001 23:1 24:0.34871 25:0.56760001 26:0.52038997 27:0.69810998 28:0.53235 29:0.80901003 30:0.58583999 31:0.43026 32:0.70923001 33:0.52361 34:0.54184997 #
0.2872025671529855883612469824584 1:1 2:0 3:0.63510001 4:-0.043880001 5:0.76529998 6:0.029680001 7:0.61431998 8:0.36028001 9:0.65358001 10:-0.0046199998 11:0.64203 12:0.083140001 13:0.79446 14:-0.43417999 15:0.72517002 16:0.54965001 17:0.59583998 18:0.13857 19:0.63510001 20:0.2194 21:0.63279003 22:-0.25404 23:0.70951003 24:0.15358999 25:0.64665002 26:0.23095 27:0.68774998 28:0.17704 29:0.61663002 30:0.07621 31:0.66316003 32:0.19841 33:0.69053 34:0.36721 #
0.2872025671529855883612469824584 1:1 2:0 3:0.87048 4:0.38027 5:0.64099002 6:0.69212002 7:0.31347001 8:0.86624998 9:-0.039329998 10:0.90740001 11:-0.42173001 12:0.79346001 13:-0.70560998 14:0.51560003 15:-0.81049001 16:0.22735 17:-0.81136 18:-0.12538999 19:-0.67474002 20:-0.38102001 21:-0.38334 22:-0.62861001 23:-0.13012999 24:-0.70762002 25:0.15552001 26:-0.66421002 27:0.38543999 28:-0.51568002 29:0.52573001 30:-0.29897001 31:0.56239003 32:-0.059379999 33:0.51459998 34:0.16644999 #
0.2872025671529855883612469824584 1:1 2:0 3:0.96087003 4:0.086199999 5:0.96759999 6:0.19279 7:0.96025997 8:0.27451 9:0.98044002 10:0.35052001 11:0.92866999 12:0.46281001 13:0.86264998 14:0.52517003 15:0.82819998 16:0.58793998 17:0.73242003 18:0.69064999 19:0.69002998 20:0.73140001 21:0.54473001 22:0.6882 23:0.48339 24:0.76196998 25:0.40615001 26:0.74689001 27:0.33401 28:0.83796 29:0.24944 30:0.86061001 31:0.13756 32:0.86835003 33:0.09048 34:0.86285001 #
-0.47359592739007916328830560814822 1:1 2:0 3:1 4:-1 5:1 6:1 7:1 8:-1 9:1 10:-1 11:1 12:-1 13:1 14:-0.0184 15:1 16:-1 17:1 18:1 19:1 20:-0.85583001 21:1 22:1 23:1 24:-1 25:0 26:0 27:1 28:1 29:1 30:-0.79141003 31:1 32:1 33:1 34:1 #
0.2872025671529855883612469824584 1:1 2:0 3:0.59886998 4:0.14689 5:0.69867998 6:-0.13936 7:0.85122001 8:-0.13936 9:0.80979002 10:0.02448 11:0.50471002 12:0.02825 13:0.6742 14:-0.045200001 15:0.80791003 16:-0.13748001 17:0.51411998 18:-0.24482 19:0.81544 20:-0.14313 21:0.70244998 22:-0.0037700001 23:0.33333001 24:0.062150002 25:0.56120998 26:-0.33144999 27:0.61444002 28:-0.16836999 29:0.52731001 30:-0.020719999 31:0.53860998 32:-0.31262001 33:0.6742 34:-0.22034 #
0.2872025671529855883612469824584 1:1 2:0 3:0.47336999 4:0.19527 5:0.06213 6:-0.18343 7:0.62316 8:0.01006 9:0.45561999 10:-0.044380002 11:0.56509 12:0.017750001 13:0.44674999 14:0.27515 15:0.71597999 16:-0.038460001 17:0.55620998 18:0.12426 19:0.41420001 20:0.11538 21:0.52767003 22:0.028419999 23:0.51182997 24:-0.10651 25:0.47929001 26:-0.023669999 27:0.46514001 28:0.032590002 29:0.53549999 30:0.25148001 31:0.31953001 32:-0.14497 33:0.34615001 34:-0.00296 #
0.2872025671529855883612469824584 1:1 2:0 3:1 4:0.16801 5:0.99352002 6:0.16334 7:0.94616002 8:0.33346999 9:0.91759002 10:0.2261 11:0.91408002 12:0.37107 13:0.84249997 14:0.46899 15:0.81010997 16:0.49225 17:0.78473002 18:0.48311001 19:0.65091002 20:0.56976998 21:0.56553 22:0.58070999 23:0.55585998 24:0.64719999 25:0.48311001 26:0.55236 27:0.43316999 28:0.69129002 29:0.35684001 30:0.76147002 31:0.33921 32:0.66843998 33:0.22101 34:0.78684998 #
-0.47351633858344543970275708488771 1:0 2:0 3:0 4:0 5:0 6:0 7:0 8:0 9:0 10:0 11:0 12:0 13:-1 14:-1 15:0 16:0 17:1 18:0.75 19:0 20:0 21:0 22:0 23:-1 24:1 25:0 26:0 27:1 28:-1 29:-1 30:-1 31:1 32:1 33:0 34:0 #
0.2872025671529855883612469824584 1:1 2:0 3:0.79847002 4:0.38264999 5:0.80804002 6:-0.16964 7:1 8:-0.076530002 9:0.98150998 10:-0.073980004 11:0.70217001 12:0.20663001 13:0.99744999 14:0.021050001 15:0.98214 16:0.024870001 17:1 18:-0.13074 19:0.95662999 20:0.077169999 21:1 22:0.00191 23:0.90306002 24:0.30803999 25:1 26:-0.14541 27:1 28:-0.0039400002 29:0.75638002 30:0.079080001 31:1 32:-0.1875 33:1 34:-0.057399999 #
0.2872025671529855883612469824584 1:1 2:0 3:0.4375 4:0.041669998 5:0.58332998 6:-0.10417 7:0.39583001 8:0 9:0.33333001 10:-0.0625 11:0.47916999 12:0 13:0.29166999 14:0.10417 15:0.54167002 16:0.02083 17:0.4375 18:-0.22916999 19:0.35416999 20:-0.22916999 21:0.33333001 22:0.083329998 23:0.25 24:0.1875 25:0.39583001 26:-0.1875 27:0.44012001 28:-0.10064 29:0.41666999 30:-0.083329998 31:0.58332998 32:-0.3125 33:0.33333001 34:-0.0625 #
-0.47342835121655346686253551524715 1:0 2:0 3:0 4:0 5:1 6:1 7:0 8:0 9:1 10:1 11:0 12:0 13:1 14:-1 15:0 16:0 17:0 18:0 19:0 20:0 21:0 22:0 23:0 24:0 25:0 26:0 27:1 28:-1 29:0 30:0 31:-1 32:1 33:0 34:0 #
-0.47334861268418260138446385099087 1:1 2:0 3:0.50932002 4:-0.93996 5:1 6:0.26708001 7:-0.0352 8:-1 9:1 10:-1 11:0.43685001 12:-1 13:0 14:0 15:-1 16:-0.34265 17:-0.37681001 18:0.036230002 19:1 20:-1 21:0 22:0 23:0 24:0 25:-0.16253 26:0.92236 27:0.39752001 28:0.26501 29:0 30:0 31:1 32:0.23187999 33:0 34:0 #
-0.47304744144242449888082546749501 1:1 2:0 3:1 4:1 5:1 6:-1 7:0 8:0 9:0 10:0 11:1 12:1 13:1 14:-1 15:1 16:1 17:1 18:-1 19:0 20:0 21:0 22:0 23:1 24:-0.27778 25:0 26:0 27:1 28:-1 29:1 30:1 31:1 32:-1 33:0 34:0 #
0.2872025671529855883612469824584 1:1 2:0 3:0.88804001 4:0.38137999 5:0.65925997 6:0.69431001 7:0.29148 8:0.87892002 9:-0.067259997 10:0.90135002 11:-0.39596999 12:0.80440998 13:-0.64573997 14:0.56502002 15:-0.82959998 16:0.26905999 17:-0.78939998 18:-0.082050003 19:-0.62779999 20:-0.30941999 21:-0.46636999 22:-0.55605 23:-0.16449 24:-0.64337999 25:0.095619999 26:-0.61054999 27:0.30406001 28:-0.48392001 29:0.43226999 30:-0.29837999 31:0.47029001 32:-0.094609998 33:0.42151999 34:0.12556 #
0.2872025671529855883612469824584 1:1 2:0 3:1 4:-0.16316 5:1 6:-0.10169 7:0.99998999 8:-0.15197 9:1 10:-0.19277 11:0.94055003 12:-0.35150999 13:0.95735002 14:-0.29785001 15:0.93719 16:-0.34412 17:0.94485998 18:-0.28106001 19:0.90136999 20:-0.43382999 21:0.86043 22:-0.47308001 23:0.82986999 24:-0.5122 25:0.84079999 26:-0.47137001 27:0.76223999 28:-0.5837 29:0.65723002 30:-0.68794 31:0.68713999 32:-0.64537001 33:0.64727002 34:-0.67225999 #
0.2872025671529855883612469824584 1:1 2:0 3:0.92277002 4:0.078039996 5:0.92679 6:0.16250999 7:0.89701998 8:0.24618 9:0.84110999 10:0.35196999 11:0.78801 12:0.42196 13:0.70716 14:0.46983001 15:0.70796001 16:0.56476003 17:0.60459 18:0.64200002 19:0.51247001 20:0.64924002 21:0.39903 22:0.66974998 23:0.34232 24:0.68343002 25:0.23693 26:0.76146001 27:0.18765 28:0.73885 29:0.096940003 30:0.71038002 31:0.027349999 32:0.77072001 33:-0.040229999 34:0.69509 #
0.2872025671529855883612469824584 1:1 2:0 3:0.65845001 4:0.43617001 5:0.44681001 6:0.74804002 7:0.05319 8:0.85105997 9:-0.32027 10:0.82138997 11:-0.68252999 12:0.52407998 13:-0.84210998 14:0.071110003 15:-0.82810998 16:-0.28723001 17:-0.47031999 18:-0.71724999 19:-0.047589999 20:-0.86001998 21:0.23292001 22:-0.76315999 23:0.56663001 24:-0.52127999 25:0.74299997 26:-0.18645 27:0.74757999 28:0.23713 29:0.45185 30:0.59070998 31:0.20548999 32:0.76763999 33:-0.18533 34:0.74356002 #
-0.47187731939791305313391944764589 1:1 2:0 3:0 4:0 5:0 6:0 7:0 8:0 9:0 10:0 11:1 12:-0.33333001 13:0.16666999 14:0.26041999 15:0 16:0 17:0 18:0 19:0 20:0 21:-0.19791999 22:-0.21875 23:-0.16666999 24:0.90625 25:-1 26:0.5 27:0.041669998 28:0.75 29:-0.22916999 30:-1 31:-0.125 32:-0.27083001 33:-0.19791999 34:-0.9375 #
0.2872025671529855883612469824584 1:1 2:0 3:0.85209 4:0.39252001 5:0.38887 6:0.76432002 7:0.088579997 8:0.98903 9:-0.42625001 10:0.88744003 11:-0.76229 12:0.4998 13:-0.93092 14:0.10768 15:-0.85900003 16:-0.31044 17:-0.66030002 18:-0.55261999 19:-0.1926 20:-0.86062998 21:0.28444001 22:-0.80496001 23:0.64648998 24:-0.35229999 25:0.77814001 26:-0.23323999 27:0.71697998 28:0.21343 29:0.37830001 30:0.58310002 31:0.19667 32:0.66315001 33:-0.11215 34:0.64933002 #
0.24558940183010435909238822205225 1:1 2:0 3:1 4:0 5:1 6:0 7:0.66667002 8:0.11111 9:1 10:-0.11111 11:0.88889003 12:-0.11111 13:1 14:-0.22222 15:0.77778 16:0 17:0.77778 18:0 19:1 20:-0.11111 21:0.77778 22:-0.11111 23:0.66667002 24:-0.11111 25:0.66667002 26:0 27:0.90346998 28:-0.053520001 29:1 30:0.11111 31:0.88889003 32:-0.11111 33:1 34:0 #
0.10462706667452258135764253665911 1:1 2:0 3:0.91175997 4:-0.088239998 5:0.97059 6:0.17647 7:0.82353002 8:0.088239998 9:0.91175997 10:-0.029410001 11:0.97059 12:-0.17647 13:0.97059 14:0.14706001 15:0.94117999 16:0.029410001 17:1 18:0 19:1 20:0 21:0.76471001 22:0.11765 23:0.88235003 24:0.029410001 25:0.85294002 26:0.029410001 27:0.92663002 28:0.026000001 29:0.94117999 30:-0.11765 31:0.97059 32:0.058820002 33:0.91175997 34:0.058820002 #
-0.46562677806133934144128261323203 1:1 2:0 3:0.10135 4:0.10811 5:0 6:0 7:0 8:0 9:0.54729998 10:0.82432002 11:0.31081 12:1 13:0 14:0 15:0 16:0 17:0.37162 18:-1 19:0.33107999 20:-1 21:0 22:0 23:0 24:0 25:-0.42568001 26:-1 27:1 28:-1 29:0.55405003 30:-0.23649 31:0 32:0 33:0 34:0 #
0.2160149296175423450083741272465 1:1 2:0 3:1 4:-0.06182 5:1 6:0.02942 7:1 8:-0.051309999 9:1 10:-0.017069999 11:1 12:-0.11726 13:0.84492999 14:-0.052019998 15:0.93392003 16:-0.065980002 17:0.69169998 18:-0.073789999 19:0.65731001 20:-0.20367 21:0.94910002 22:-0.31558001 23:0.80852002 24:-0.31654 25:0.84931999 26:-0.34838 27:0.72529 28:-0.29174 29:0.73093998 30:-0.38576001 31:0.54356003 32:-0.26284 33:0.64207 34:-0.39487001 #
0.2872025671529855883612469824584 1:1 2:0 3:0.91767001 4:0.18198 5:0.86089998 6:0.35543001 7:0.72873002 8:0.45747 9:0.60425001 10:0.69865 11:0.50375998 12:0.74922001 13:0.361 14:0.81795001 15:0.15663999 16:0.83557999 17:0.0039599999 18:0.85210001 19:-0.1639 20:0.77853 21:-0.35995999 22:0.76192999 23:-0.43087 24:0.65385002 25:-0.53140002 26:0.53886002 27:-0.60328001 28:0.40972 29:-0.64511001 30:0.27338001 31:-0.65710002 32:0.13666999 33:-0.64055997 34:0.053939998 #
-0.46580682339153539617271349015937 1:1 2:0 3:-0.0064099999 4:-0.5 5:0 6:0 7:-0.019230001 8:1 9:0 10:0 11:0 12:0 13:0 14:0 15:0 16:0 17:0 18:0 19:0.3141 20:0.92948997 21:-0.35256001 22:0.74359 23:-0.34615001 24:-0.80769002 25:0 26:0 27:-0.61537999 28:-0.51282001 29:0 30:0 31:0 32:0 33:0 34:0 #
0.12132379699733415734375086003638 1:1 2:0 3:0.89410001 4:0.13425 5:0.87001002 6:0.31542999 7:0.78895998 8:0.43388 9:0.63388002 10:0.59974998 11:0.54003 12:0.71016002 13:0.39699 14:0.76160997 15:0.24266 16:0.79522997 17:0.091339998 18:0.79597998 19:-0.091590002 20:0.76261002 21:-0.20201001 22:0.66926003 23:-0.30263001 24:0.6261 25:-0.40551999 26:0.50489002 27:-0.46215001 28:0.40753001 29:-0.50313997 30:0.27252001 31:-0.52823001 32:0.19171999 33:-0.48807999 34:0.059719998 #
0.11092186422228879350004859816181 1:1 2:0 3:0.86284 4:0.19310001 5:0.80919999 6:0.41148999 7:0.67202997 8:0.55785 9:0.54558998 10:0.69962001 11:0.36704999 12:0.81533003 13:0.19617 14:0.85671002 15:-0.04061 16:0.86284 17:-0.17241 18:0.75784999 19:-0.34099999 20:0.65746999 21:-0.48199001 22:0.56092 23:-0.60229999 24:0.40996 25:-0.59233999 26:0.25747001 27:-0.63037997 28:0.088179998 29:-0.57240999 30:-0.078160003 31:-0.54865998 32:-0.19923 33:-0.42912 34:-0.31953999 #
-0.4708725884164361441541757358209 1:1 2:0 3:0.69444001 4:0.38889 5:0 6:0 7:-0.32936999 8:0.69840997 9:0 10:0 11:0 12:0 13:0 14:0 15:0.20635 16:-0.24206001 17:0.21032 18:0.19444001 19:0.46428999 20:0.78175002 21:0 22:0 23:0 24:0 25:0.73413002 26:0.27381 27:0.76190001 28:0.63492 29:0 30:0 31:0 32:0 33:0 34:0 #
0.11792743515132667053713078075816 1:1 2:0 3:1 4:-0.01342 5:1 6:0.015659999 7:1 8:-0.0022400001 9:1 10:0.062639996 11:0.97763002 12:0.044739999 13:0.95973003 14:0.02908 15:1 16:0.064879999 17:0.98881 18:0.03356 19:1 20:0.03579 21:0.99776 22:0.093960002 23:0.95749003 24:0.073830001 25:1 26:0.10067 27:0.99989003 28:0.087630004 29:0.99105 30:0.08501 31:1 32:0.10067 33:1 34:0.10067 #
-0.19284260041962320020303423007135 1:0 2:0 3:-1 4:1 5:1 6:-1 7:-1 8:1 9:0 10:0 11:1 12:1 13:-1 14:-0.1875 15:1 16:1 17:-1 18:-1 19:1 20:-1 21:-1 22:-1 23:1 24:1 25:1 26:-1 27:1 28:1 29:1 30:1 31:0 32:0 33:-1 34:-1 #
-0.39754810689425690295450976918801 1:0 2:0 3:0 4:0 5:0 6:0 7:0 8:0 9:0 10:0 11:0 12:0 13:0 14:0 15:0 16:0 17:0 18:0 19:0 20:0 21:0 22:0 23:0 24:0 25:0 26:0 27:1 28:-1 29:0 30:0 31:0 32:0 33:0 34:0 #
0.0037198782668952934393757914222078 1:1 2:0 3:1 4:0.16195001 5:1 6:-0.055580001 7:1 8:0.01373 9:1 10:-0.12352 11:1 12:-0.01511 13:1 14:-0.017309999 15:1 16:-0.06374 17:1 18:-0.071570002 19:1 20:0.059 21:1 22:-0.10108 23:1 24:-0.02685 25:1 26:-0.22978 27:1 28:-0.068230003 29:1 30:0.082989998 31:1 32:-0.14194 33:1 34:-0.074390002 #
