SVM-light Version V6.02
2 # kernel type
3 # kernel parameter -d 
1 # kernel parameter -g 
1 # kernel parameter -s 
1 # kernel parameter -r 
empty# kernel parameter -u 
2 # highest feature index 
200 # number of training documents 
40 # number of support vectors plus 1 
0.0053412175 # threshold b, each following line is a SV (starting with alpha*y)
-0.80443094092509614956298946708557 1:1.1163 2:0.14178 #
0.16460757131301256839250868324598 1:0.083089001 2:0.40073001 #
-0.80443094092509614956298946708557 1:0.22312 2:0.032437 #
0.31559273592023640020443053799681 1:1.0681 2:0.53846997 #
-0.80443094092509614956298946708557 1:1.0763 2:0.18764 #
-0.42208961928205762648147469917603 1:0.14653 2:-0.13203999 #
-0.73648230209931686562896402392653 1:0.26767999 2:-0.077569999 #
0.80443094092509614956298946708557 1:0.25172001 2:0.13341001 #
0.80443094092509614956298946708557 1:0.26998001 2:0.33273 #
0.80443094092509614956298946708557 1:0.98925 2:0.35663 #
-0.80443094092509614956298946708557 1:0.95747 2:0.16762 #
0.80443094092509614956298946708557 1:0.095081002 2:0.29696 #
0.80443094092509614956298946708557 1:1.0303 2:0.38280001 #
0.60869244041092940289416901578079 1:-0.84232002 2:0.068618 #
0.11297492929954328078068215290841 1:0.011373 2:0.39295 #
0.80443094092509614956298946708557 1:-0.019103 2:0.30322999 #
0.80443094092509614956298946708557 1:0.17675 2:0.15121999 #
-0.80443094092509614956298946708557 1:0.22362 2:0.097370997 #
0.80443094092509614956298946708557 1:0.77568001 2:0.35179999 #
0.20110512950801059939287540601072 1:0.79061002 2:0.4605 #
0.80443094092509614956298946708557 1:0.11317 2:0.36307001 #
0.80443094092509614956298946708557 1:1.2517 2:0.39912 #
0.80443094092509614956298946708557 1:1.0875 2:0.31119999 #
-0.80443094092509614956298946708557 1:1.1339 2:0.068759002 #
0.80443094092509614956298946708557 1:1.2115 2:0.57165003 #
0.80443094092509614956298946708557 1:1.0441999 2:0.29060999 #
-0.80443094092509614956298946708557 1:1.168 2:0.10842 #
-0.80443094092509614956298946708557 1:1.1260999 2:0.11495 #
-0.52329302084847828524516444304027 1:2.5339 2:0.45407999 #
0.80443094092509614956298946708557 1:1.0013 2:0.34149 #
-0.80443094092509614956298946708557 1:0.11948 2:0.031817999 #
-0.24640216833729255974105853965739 1:1.0095 2:0.037579 #
-0.80443094092509614956298946708557 1:0.42603001 2:0.0032356 #
-0.80443094092509614956298946708557 1:1.9402 2:0.49085999 #
-0.80443094092509614956298946708557 1:1.1548001 2:0.12379 #
-0.80443094092509614956298946708557 1:0.287 2:0.082630999 #
-0.80443094092509614956298946708557 1:0.094553001 2:0.057927001 #
0.52997155650693206219159492320614 1:-1.3824 2:0.016367 #
-0.0046772523915185352724743772512284 1:2.1819 2:0.43037 #
