SVM-light Version V6.02
2 # kernel type
3 # kernel parameter -d 
1 # kernel parameter -g 
1 # kernel parameter -s 
1 # kernel parameter -r 
empty# kernel parameter -u 
2 # highest feature index 
147 # number of training documents 
34 # number of support vectors plus 1 
-0.79039873 # threshold b, each following line is a SV (starting with alpha*y)
-0.73216727581694573956383464974351 1:0.38075 2:-0.92467999 #
1.1549018775253609980779856414301 1:0.76933002 2:0.63884997 #
1.2058407540713478312000006553717 1:0.77996999 2:-0.62581998 #
0.10651731024873116460138788852419 1:0.058761999 2:0.99826998 #
-1.2058407540713478312000006553717 1:0.43821001 2:-0.89886999 #
1.2058407540713478312000006553717 1:-0.83897001 2:-0.54417998 #
-1.2058407540713478312000006553717 1:0.42500001 2:0.21250001 #
-1.2058407540713478312000006553717 1:0.47499999 2:0.2375 #
-1.2058407540713478312000006553717 1:0.5 2:0.25 #
1.2058407540713478312000006553717 1:0.73901999 2:-0.67369002 #
0.63700509917148484539950459293323 1:-0.94815999 2:-0.31779999 #
1.2058407540713478312000006553717 1:0.81782001 2:-0.57547998 #
-1.1061214997419990258009647732251 1:0.40000001 2:0.2 #
-1.2058407540713478312000006553717 1:-0.80304998 2:-0.59592003 #
1.2058407540713478312000006553717 1:0.80803001 2:0.58914 #
1.2058407540713478312000006553717 1:0.64850003 2:-0.76121998 #
-1.2058407540713478312000006553717 1:0.54769999 2:-0.83668 #
1.2058407540713478312000006553717 1:-0.92627001 2:-0.37685999 #
-1.2058407540713478312000006553717 1:0.44999999 2:0.22499999 #
1.2058407540713478312000006553717 1:0.69514 2:-0.71888 #
0.78391001644428448535961706511443 1:0.85242999 2:-0.52284998 #
1.2058407540713478312000006553717 1:-0.90069997 2:-0.43443 #
1.1213857329936860462993308829027 1:0.84351999 2:0.53710002 #
-1.2058407540713478312000006553717 1:0.49394 2:-0.86949998 #
-1.2058407540713478312000006553717 1:-0.76393002 2:-0.64529002 #
0.50601978369130440338352627804852 1:-0.067152999 2:0.99773997 #
-1.2058407540713478312000006553717 1:0.59929001 2:-0.80053002 #
-0.53951953720374390410796650030534 1:-0.62910002 2:-0.77732998 #
-1.2058407540713478312000006553717 1:-0.67679 2:-0.73618001 #
1.2058407540713478312000006553717 1:-0.87156999 2:-0.49028 #
-1.2058407540713478312000006553717 1:-0.72179002 2:-0.69211 #
0.47230441368622244624475570162758 1:-0.0042037 2:0.99998999 #
0.0074455871443096510731152193329763 1:0.1215 2:0.99259001 #
