SVM-light Version V6.02
0 # kernel type
3 # kernel parameter -d 
1 # kernel parameter -g 
1 # kernel parameter -s 
1 # kernel parameter -r 
empty# kernel parameter -u 
2 # highest feature index 
147 # number of training documents 
3 # number of support vectors plus 1 
-3.2032475e-05 # threshold b, each following line is a SV (starting with alpha*y)
-1.6018353378783742879676310622017 1:1 2:0 #
1.6018353378783742879676310622017 1:0 2:0 #
